svm_type c_svc
kernel_type linear
nr_class 2
total_sv 86
rho 0.953753
label 1 0
probA -2.04298
probB 1.47702
nr_sv 14 72
SV
1 1:0.48920863 2:0.1010101 3:0.51807229 4:0.52941176 5:0.047887324 6:0.20833333 7:0.6328125 8:0.55131265 9:0.62068966 10:0.22111554 11:0.60556845 12:0.43678161 13:0.48926014 14:0.62142857 15:0.53929539 16:0.081570997 17:0.67142857 18:0.48337029 19:0.41584158 20:0.38953488 21:0.45546559 22:0.54790419 23:0.41628959 24:0.039267016 25:0.019662921 26:0.55061728 27:0.64917127 28:0.1318328 29:0.45482866 30:0.012135922 31:0.0032467532 32:0.56849315 33:0.27405248 34:0.072562358 35:0.33420366 36:0.21305842 37:0.010025063 38:0.43137255 39:0.804 40:0.57567568 41:0.50367647 42:0.63068182 43:0.35947712 44:0.66273585 45:0.52631579 46:0.46136865 47:0.79400749 48:0.64885496 49:0.45879733 50:0.28747433 51:0.45155393 52:0.54107649 53:0.50958904 54:0.4988345 55:0.15053763 56:0.48232848 57:0.6566416 58:0.089965398 59:0.42090395 60:0.15046296 61:0.27246377 62:0.67934783 63:0.44134078 64:0.014388489 65:0.54681648 66:0.37055838 67:0.0023364486 68:0.42776204 69:0.74926254 70:0.45555556 71:0.52918288 72:0.39919355 73:0.53186813 74:0.50666667 75:0.43069307 76:0.026041667 77:0.6405868 78:0.58403361 79:0.44646465 80:0.60232558 81:0.48979592 82:0.57880435 83:0.50098232 84:0.16905444 85:0.069135802 86:0.62210797 87:0.42990654 88:0.24842767 89:0.50364964 90:0.020881671 91:0.02972973 92:0.15508021 93:0.3700565 94:0.31150794 95:0.33185841 96:0.073891626 97:0.27071823 98:0.4987013 99:0.65517241 100:0.61538462 101:0.45302013 102:0.2384106 103:0.54336735 104:0.60481928 105:0.58567775 106:0.43776824 107:0.14497041 108:0.74782609 109:0.39030023 110:0.47413793 111:0.50135501 112:0.44258873 113:0.43309002 114:0.43989071 115:0.18141593 116:0.476082 117:0.035799523 118:0.70520231 119:0.68137255 120:0.56373938 121:0.023872679 122:0.11597938 123:0.063414634 124:0.14953271 125:0.29251701 126:0.22099448 127:0.2377451 128:0.035010941 129:0.27586207 130:0.42058824 131:0.34615385 132:0.064516129 133:0.42570281 134:0.42424242 135:0.58057395 136:0.55389222 137:0.45994832 138:0.93272171 139:0.46354167 140:0.44016227 141:0.46616541 142:0.51239669 143:0.5902965 144:0.55589124 146:0.0028818444 147:0.13636364 148:0.53731343 149:0.5297619 150:0.63561644 151:0.28184282 152:0.45878136 153:0.38557994 154:0.49411765 155:0.60457516 156:0.71290323 157:0.025445293 158:0.13383838 159:0.012820513 160:0.59375 161:0.53298153 162:0.38482385 163:0.23178808 164:0.54487179 165:0.67647059 166:0.37785016 
1 1:0.41726619 2:0.033670034 3:0.17670683 4:0.52941176 6:0.2578125 7:0.5625 8:0.53937947 9:0.53846154 10:0.4063745 11:0.65893271 12:0.82183908 13:0.65155131 14:0.7047619 15:0.58807588 16:0.090634441 17:0.8 18:0.56984479 19:0.81584158 20:0.36821705 21:0.5708502 22:0.5 23:0.61538462 24:0.020942408 25:0.0056179775 26:0.46419753 27:0.75690608 28:0.14469453 29:0.46728972 30:0.046116505 31:0.0032467532 32:0.30479452 33:0.33819242 34:0.18367347 35:0.31070496 36:0.3161512 37:0.015037594 38:0.55182073 39:0.052 40:0.68918919 41:0.12132353 42:0.59659091 43:0.54466231 44:0.61556604 45:0.93157895 46:0.52317881 47:0.26217228 48:0.53689567 49:0.75946548 50:0.37166324 51:0.71846435 52:0.51558074 53:0.58082192 54:0.4965035 55:0.16666667 56:0.50519751 57:0.66917293 58:0.14532872 59:0.44067797 60:0.27777778 61:0.24927536 62:0.0081521739 63:0.57541899 64:0.019184652 65:0.53932584 66:0.28426396 67:0.0023364486 68:0.44475921 69:0.55752212 70:0.54166667 71:0.14007782 72:0.040322581 73:0.63956044 74:0.88 75:0.54950495 76:0.052083333 77:0.62836186 78:0.4789916 79:0.86666667 80:0.59302326 81:0.46938776 82:0.50271739 83:0.72102161 84:0.22636103 85:0.14814815 86:0.50899743 87:0.50155763 88:0.21069182 89:0.50729927 90:0.030162413 92:0.27272727 93:0.35028249 94:0.48015873 95:0.33185841 96:0.46305419 97:0.30110497 98:0.53766234 99:0.0098522167 100:0.63589744 101:0.083892617 102:0.45695364 103:0.62755102 104:0.62891566 105:0.64961637 106:0.31759657 107:0.17159763 108:0.6173913 109:0.40877598 110:0.93965517 111:0.66666667 112:0.58663883 113:0.56934307 114:0.63387978 115:0.17477876 116:0.44419134 117:0.016706444 118:0.5867052 119:0.65196078 120:0.66288952 121:0.015915119 122:0.1314433 123:0.070731707 124:0.39875389 125:0.06122449 126:0.49171271 127:0.47058824 128:0.12253829 129:0.5 130:0.40294118 131:0.16666667 132:0.1 133:0.54417671 134:0.74431818 135:0.64238411 136:0.29341317 137:0.60723514 138:0.36391437 139:0.62760417 140:0.53549696 141:0.65789474 142:0.63085399 143:0.59568733 144:0.56495468 145:0.0056022409 146:0.017291066 147:0.068181818 148:0.57014925 149:0.54761905 150:0.74520548 151:0.27100271 152:0.44802867 153:0.36990596 154:0.054901961 155:0.5751634 156:0.025806452 157:0.053435114 158:0.26767677 159:0.023076923 160:0.521875 161:0.73350923 162:0.57452575 163:0.15231788 164:0.57051282 165:0.71764706 166:0.2019544 
0.9682556020739659 1:0.15827338 2:0.0067340067 3:0.032128514 4:1 6:0.096354167 7:0.54166667 8:0.63961814 9:0.55437666 10:0.35657371 11:0.63341067 12:0.38505747 13:0.60620525 14:0.55 15:0.57723577 16:0.063444109 17:0.73428571 18:0.53658537 19:0.42970297 20:0.31589147 21:0.39473684 22:0.5 23:0.40950226 24:0.041884817 25:0.039325843 26:0.60493827 27:0.52486188 28:0.32154341 29:0.49221184 30:0.038834951 31:0.0032467532 32:0.020547945 33:0.60932945 34:0.11791383 35:0.4073107 36:0.1443299 38:0.52661064 39:0.012 40:0.38648649 41:0.033088235 42:0.13920455 43:0.49673203 44:0.64386792 45:0.45789474 46:0.46578366 47:0.15730337 48:0.52926209 49:0.52783964 50:0.34702259 51:0.39670932 52:0.52124646 53:0.49315068 54:0.4965035 55:0.42741935 56:0.44698545 57:0.54887218 58:0.11072664 59:0.25706215 60:0.22685185 61:0.65217391 62:0.0027173913 63:0.56424581 64:0.03117506 65:0.56928839 66:0.17258883 67:0.0046728972 68:0.24362606 69:0.005899705 70:0.21666667 71:0.027237354 72:0.016129032 73:0.60659341 74:0.42444444 75:0.5470297 76:0.0625 77:0.62347188 78:0.50420168 79:0.42020202 80:0.56976744 81:0.37641723 82:0.48097826 83:0.47347741 84:0.84240688 85:0.12592593 86:0.59125964 87:0.23364486 88:0.50314465 89:0.78467153 90:0.034802784 91:0.0027027027 92:0.2513369 93:0.56497175 94:0.39880952 95:0.61946903 96:0.014778325 97:0.11325967 98:0.58441558 99:0.014778325 100:0.46666667 101:0.023489933 102:0.35761589 103:0.63010204 104:0.64337349 105:0.56777494 106:0.29184549 107:0.062130178 108:0.56811594 109:0.42725173 110:0.4454023 111:0.50677507 112:0.39874739 113:0.36253041 114:0.3989071 115:0.13716814 116:0.33712984 117:0.047732697 118:0.77456647 119:0.63235294 120:0.5184136 121:0.042440318 122:0.13917526 123:0.048780488 124:0.74454829 125:0.0068027211 126:0.23756906 127:0.3627451 128:0.076586433 129:0.41163793 130:0.47352941 131:0.85470085 132:0.035483871 133:0.46787149 134:0.39583333 135:0.50331126 136:0.28443114 137:0.62273902 138:0.3058104 139:0.49479167 140:0.47058824 141:0.47368421 142:0.40220386 143:0.46091644 144:0.56495468 145:0.0028011204 146:0.0086455331 147:0.098484848 148:0.24179104 149:0.25595238 150:0.4630137 151:0.42547425 152:0.40860215 153:0.48589342 154:0.015686275 155:0.27124183 156:0.0064516129 157:0.03562341 158:0.15151515 159:0.028205128 160:0.0375 161:0.16622691 162:0.39837398 163:0.57284768 164:0.61538462 165:0.30294118 166:0.45928339 
1 1:0.23021583 2:0.01010101 3:0.084337349 4:0.54411765 6:0.81510417 7:0.609375 8:0.54653938 9:0.5729443 10:0.21513944 11:0.62180974 12:0.42911877 13:0.49403341 14:0.61666667 15:0.52303523 16:0.11178248 17:0.73142857 18:0.47006652 19:0.39207921 20:0.38953488 21:0.48380567 22:0.51197605 23:0.40045249 24:0.031413613 25:0.028089888 26:0.52098765 27:0.65469613 28:0.14790997 29:0.78193146 30:0.012135922 31:0.0032467532 32:0.5 33:0.48979592 34:0.14739229 35:0.66318538 36:0.16151203 37:0.52631579 38:0.44257703 39:0.016 40:0.58108108 41:0.047794118 42:0.14488636 43:0.35947712 44:0.66745283 45:0.50263158 46:0.49227373 47:0.19850187 48:0.58015267 49:0.4766147 50:0.28131417 51:0.46800731 52:0.49291785 53:0.47671233 54:0.45920746 55:0.30913978 56:0.48232848 57:0.64411028 58:0.10034602 59:0.86723164 60:0.15046296 61:0.15942029 62:0.048913043 63:0.59776536 64:0.25659472 65:0.89513109 66:0.065989848 67:0.0023364486 68:0.27195467 69:0.005899705 70:0.35555556 71:0.058365759 72:0.0080645161 73:0.54065934 74:0.49777778 75:0.42079208 76:0.041666667 77:0.62836186 78:0.59663866 79:0.41818182 80:0.60930233 81:0.44671202 82:0.55163043 83:0.4891945 84:0.13753582 85:0.066666667 86:0.59383033 87:0.29906542 88:0.24213836 89:0.65328467 90:0.43387471 92:0.14438503 93:0.38983051 94:0.33333333 95:0.52212389 96:0.39901478 97:0.84254144 98:0.4961039 99:0.0098522167 100:0.6025641 101:0.030201342 102:0.17880795 103:0.53826531 104:0.60481928 105:0.57544757 106:0.472103 107:0.25739645 108:0.70724638 109:0.3926097 110:0.47126437 111:0.54471545 112:0.44885177 113:0.37712895 114:0.3989071 115:0.17035398 116:0.43963554 117:0.045346062 118:0.68208092 119:0.66421569 120:0.57223796 121:0.026525199 122:0.50773196 123:0.52439024 124:0.4517134 125:0.30612245 126:0.34254144 127:0.24264706 128:0.09190372 129:0.29310345 130:0.61176471 131:0.64102564 132:0.80322581 133:0.4497992 134:0.44318182 135:0.58278146 136:0.19461078 137:0.50387597 138:0.23853211 139:0.42708333 140:0.45030426 141:0.42481203 142:0.52066116 143:0.57681941 144:0.54682779 145:0.0028011204 146:0.011527378 147:0.12121212 148:0.37014925 149:0.35119048 150:0.63835616 151:0.67479675 152:0.64874552 153:0.47648903 154:0.011764706 155:0.41503268 156:0.04516129 157:0.022900763 158:0.15656566 159:0.033333333 160:0.0125 161:0.11345646 162:0.16531165 163:0.13245033 164:0.63461538 165:0.81764706 166:0.19869707 
0.4258426747632033 1:0.23021583 2:0.28956229 3:0.58232932 4:0.55147059 6:0.6875 7:0.0234375 8:0.70883055 9:0.068965517 10:0.62151394 11:0.66821346 12:0.47701149 13:0.67303103 14:0.60714286 15:0.65582656 16:0.79154079 17:0.031428571 18:0.654102 19:0.46930693 20:0.41860465 21:0.41902834 22:0.011976048 23:0.16968326 24:0.62041885 25:0.53089888 26:0.12839506 27:0.10773481 28:0.022508039 29:0.48909657 30:0.63349515 31:0.0032467532 32:0.46575342 33:0.27405248 34:0.69387755 35:0.32898172 36:0.32302405 37:0.010025063 38:0.10644258 39:0.488 40:0.14054054 41:0.50367647 42:0.32386364 43:0.62091503 44:0.55424528 45:0.54210526 46:0.74392936 47:0.02247191 48:0.4783715 49:0.63474388 50:0.47227926 51:0.44789762 52:0.019830028 53:0.035616438 54:0.34731935 55:0.44892473 56:0.43659044 57:0.022556391 58:0.044982699 59:0.61581921 60:0.67592593 61:0.37101449 62:0.19565217 63:0.19553073 64:0.74340528 65:0.47940075 66:0.33502538 67:0.0046728972 68:0.43909348 69:0.2920354 70:0.425 71:0.54085603 72:0.46774194 73:0.66593407 74:0.59333333 75:0.59653465 76:0.072916667 77:0.034229829 78:0.55672269 79:0.45656566 80:0.4627907 81:0.26077098 82:0.019021739 83:0.37721022 84:0.43553009 85:0.58024691 86:0.030848329 87:0.35825545 88:0.30503145 89:0.48175182 90:0.72157773 91:0.0081081081 92:0.10695187 93:0.40677966 94:0.74007937 95:0.34513274 96:0.086206897 97:0.47237569 98:0.012987013 99:0.6453202 100:0.015384615 101:0.44630872 102:0.2218543 103:0.65561224 104:0.58313253 105:0.55754476 106:0.49785408 107:0.076923077 108:0.46666667 109:0.52424942 110:0.49137931 111:0.4796748 112:0.28183716 113:0.097323601 114:0.038251366 115:0.53539823 116:0.5808656 117:0.57995227 118:0.063583815 119:0.036764706 120:0.033994334 121:0.61007958 122:0.58762887 123:0.6804878 124:0.20249221 125:0.054421769 126:0.011049724 127:0.77205882 128:0.62800875 129:0.74353448 130:0.37647059 131:0.52136752 132:0.093548387 133:0.53614458 134:0.54356061 135:0.67108168 136:0.51197605 137:0.062015504 138:0.48623853 139:0.14322917 140:0.43204868 141:0.34586466 142:0.12947658 143:0.016172507 144:0.012084592 145:0.0028011204 146:0.011527378 147:0.083333333 148:0.48656716 149:0.46428571 150:0.14246575 151:0.29810298 152:0.43010753 153:0.39184953 154:0.44313725 155:0.44117647 156:0.35483871 157:0.096692112 158:0.9040404 159:0.64871795 160:0.325 161:0.17414248 162:0.21680217 163:0.31788079 164:0.6474359 165:0.73235294 166:0.5276873 
0.05121819418770644 1:0.20863309 2:0.02020202 3:0.076305221 4:0.54411765 6:0.3828125 7:0.56510417 8:0.54892601 9:0.51458886 10:0.30677291 11:0.64965197 12:0.53448276 13:0.57040573 14:0.56904762 15:0.53116531 16:0.090634441 17:0.76857143 18:0.50110865 19:0.58811881 20:0.42829457 21:0.47975709 22:0.49401198 23:0.59728507 24:0.044502618 25:0.014044944 26:0.52592593 27:0.67403315 28:0.39228296 29:0.42367601 30:0.012135922 31:0.0032467532 32:0.50342466 33:0.45772595 34:0.11337868 35:0.68146214 36:0.16494845 38:0.63305322 39:0.008 40:0.53513514 41:0.058823529 42:0.125 43:0.44662309 44:0.65801887 45:0.57368421 46:0.5187638 47:0.20599251 48:0.58015267 49:0.55679287 50:0.35728953 51:0.42778793 52:0.52407932 53:0.55342466 54:0.48951049 55:0.069892473 56:0.45945946 57:0.62907268 58:0.15916955 59:0.50282486 60:0.19212963 61:0.12173913 62:0.04076087 63:0.59776536 64:0.0071942446 65:0.48689139 66:0.076142132 67:0.0046728972 68:0.39660057 69:0.0029498525 70:0.35277778 71:0.054474708 72:0.0040322581 73:0.59340659 74:0.52666667 75:0.48514851 76:0.036458333 77:0.57212714 78:0.55882353 79:0.6 80:0.59534884 81:0.53968254 82:0.48369565 83:0.49705305 84:0.13467049 85:0.10123457 86:0.57069409 87:0.37071651 88:0.3490566 89:0.33941606 90:0.018561485 92:0.16042781 93:0.35875706 94:0.4047619 95:0.52212389 96:0.40147783 97:0.32596685 98:0.58701299 99:0.019704434 100:0.55897436 101:0.05033557 102:0.18211921 103:0.58673469 104:0.62650602 105:0.55498721 106:0.39270386 107:0.065088757 108:0.58550725 109:0.40646651 110:0.57183908 111:0.50948509 112:0.56367432 113:0.60097324 114:0.61748634 115:0.24557522 116:0.54897494 117:0.035799523 118:0.76011561 119:0.67647059 120:0.64872521 121:0.013262599 122:0.10051546 123:0.087804878 124:0.40186916 125:0.33673469 126:0.28176796 127:0.32107843 128:0.06345733 129:0.39008621 130:0.53235294 131:0.62820513 132:0.79032258 133:0.46385542 134:0.41477273 135:0.50772627 136:0.45209581 137:0.70542636 138:0.49235474 139:0.54947917 140:0.45030426 141:0.46428571 142:0.5261708 143:0.51752022 144:0.57703927 145:0.0056022409 146:0.017291066 147:0.11363636 148:0.35820896 149:0.375 150:0.62191781 151:0.65311653 152:0.42293907 153:0.43573668 154:0.011764706 155:0.39869281 156:0.038709677 157:0.025445293 158:0.1969697 159:0.0076923077 160:0.00625 161:0.11609499 162:0.16260163 163:0.13907285 164:0.63461538 165:0.83529412 166:0.21824104 
0.3134550106553191 1:0.24460432 2:0.28282828 3:0.58232932 4:0.53308824 6:0.671875 7:0.020833333 8:0.6778043 9:0.042440318 10:0.62948207 11:0.49651972 12:0.4348659 13:0.52983294 14:0.61428571 15:0.63685637 16:0.13595166 17:0.02 18:0.64079823 19:0.51287129 20:0.40116279 21:0.31983806 22:0.011976048 23:0.21493213 24:0.63350785 25:0.52808989 26:0.17037037 27:0.10220994 28:0.022508039 29:0.46417445 30:0.63592233 31:0.0032467532 32:0.45547945 33:0.27405248 34:0.60997732 35:0.34203655 36:0.32302405 37:0.027568922 38:0.1092437 39:0.492 40:0.13783784 41:0.5 42:0.32670455 43:0.57298475 44:0.58726415 45:0.51578947 46:0.40618102 47:0.026217228 48:0.36895674 49:0.65478842 50:0.50924025 51:0.3820841 52:0.011331445 53:0.063013699 54:0.24242424 55:0.45698925 56:0.47609148 57:0.01754386 58:0.038062284 59:0.57909605 60:0.66203704 61:0.34782609 62:0.1875 63:0.20670391 64:0.76019185 65:0.50187266 66:0.34010152 67:0.0023364486 68:0.44192635 69:0.2979351 70:0.425 71:0.53696498 72:0.46774194 73:0.46153846 74:0.56222222 75:0.58910891 76:0.0625 77:0.026894866 78:0.60294118 79:0.45858586 80:0.4372093 81:0.14965986 82:0.016304348 83:0.36738703 84:0.45845272 85:0.59753086 86:0.041131105 87:0.35202492 88:0.23899371 89:0.47810219 90:0.71229698 91:0.0081081081 92:0.096256684 93:0.40112994 94:0.50396825 95:0.34955752 96:0.088669951 97:0.49447514 98:0.015584416 99:0.6453202 100:0.012820513 101:0.43959732 102:0.2218543 103:0.57142857 104:0.49638554 105:0.5370844 106:0.56223176 107:0.10650888 108:0.4057971 109:0.57967667 110:0.50287356 111:0.51219512 112:0.23173278 113:0.055961071 114:0.049180328 115:0.55530973 116:0.55580866 117:0.61575179 118:0.066473988 119:0.029411765 120:0.031161473 121:0.58355438 122:0.51804124 123:0.64390244 124:0.19314642 125:0.051020408 126:0.0055248619 127:0.68872549 128:0.65207877 129:0.55603448 130:0.4 131:0.51709402 132:0.11612903 133:0.47389558 134:0.50189394 135:0.66887417 136:0.51497006 137:0.067183463 138:0.49235474 139:0.22916667 140:0.4989858 141:0.40601504 142:0.12947658 143:0.013477089 144:0.01510574 145:0.0028011204 146:0.0086455331 147:0.083333333 148:0.48656716 149:0.46130952 150:0.13972603 151:0.30352304 152:0.44086022 153:0.39184953 154:0.43921569 155:0.44117647 156:0.3516129 157:0.053435114 158:0.23232323 159:0.71794872 160:0.325 161:0.176781 162:0.22222222 163:0.31456954 164:0.64102564 165:0.73235294 166:0.52442997 
1 1:0.37410072 2:0.94949495 3:0.69076305 4:0.15073529 6:0.70833333 7:0.010416667 8:0.6778043 9:0.018567639 10:0.5438247 11:0.53364269 12:0.42145594 13:0.51551313 14:0.63571429 15:0.53929539 16:0.12990937 17:0.014285714 18:0.58758315 19:0.51881188 20:0.46317829 21:0.2388664 22:0.005988024 23:0.19683258 24:0.70942408 25:0.49438202 26:0.14814815 27:0.16850829 28:0.054662379 29:0.3894081 30:0.58737864 31:0.0032467532 32:0.37328767 33:0.27696793 34:0.53287982 35:0.010443864 36:0.52920962 37:0.035087719 38:0.232493 39:0.484 40:0.17567568 41:0.95588235 42:0.46306818 43:0.50980392 44:0.63443396 45:0.53421053 46:0.41721854 47:0.0074906367 48:0.22137405 49:0.65924276 50:0.51540041 51:0.34369287 52:0.0084985836 53:0.052054795 54:0.23776224 55:0.54032258 56:0.45945946 57:0.015037594 58:0.90311419 59:0.63276836 60:0.61574074 61:0.017391304 62:0.56793478 63:0.5027933 64:0.74100719 65:0.16479401 66:0.41624365 67:0.0023364486 68:0.45892351 69:0.49262537 70:0.46111111 71:0.86381323 72:0.68145161 73:0.47472527 74:0.55777778 75:0.55693069 76:0.0625 77:0.014669927 78:0.61764706 79:0.46060606 80:0.43255814 81:0.095238095 82:0.0081521739 83:0.35166994 84:0.55873925 85:0.65925926 86:0.028277635 87:0.91277259 88:0.22012579 89:0.13868613 90:0.70301624 91:0.4027027 92:0.21925134 93:0.042372881 94:0.45238095 95:0.12389381 96:0.67980296 97:0.54143646 98:0.012987013 99:0.55172414 100:0.01025641 101:0.98322148 102:0.34437086 103:0.49234694 104:0.51807229 105:0.54219949 106:0.54935622 107:0.073964497 108:0.21449275 109:0.5704388 110:0.50287356 111:0.51490515 112:0.18162839 113:0.03406326 114:0.040983607 115:0.63716814 116:0.5261959 117:0.61813842 118:0.089595376 119:0.024509804 120:0.15864023 121:0.5464191 122:0.55670103 123:0.65609756 124:0.54205607 125:0.3877551 126:0.57458564 127:0.63970588 128:0.59299781 129:0.57974138 130:0.0029411765 131:0.068376068 132:0.15483871 133:0.3935743 134:0.46969697 135:0.66004415 136:0.48203593 137:0.090439276 138:0.27217125 139:0.20572917 140:0.49087221 141:0.40225564 142:0.24793388 143:0.016172507 144:0.012084592 145:0.0056022409 146:0.014409222 147:0.098484848 148:0.68656716 149:0.8452381 150:0.14520548 151:0.054200542 152:0.021505376 153:0.0062695925 154:0.81568627 155:0.44117647 156:0.76451613 157:0.03562341 158:0.22979798 159:0.7 160:0.396875 161:0.68865435 162:0.5203252 163:0.21523179 164:0.60897436 165:0.67647059 166:0.087947883 
0.7572800948951781 1:0.35251799 2:0.087542088 3:0.096385542 4:0.47058824 5:0.0028169014 6:0.4609375 7:0.57291667 8:0.14319809 9:0.52519894 10:0.36055777 11:0.013921114 12:0.40038314 13:0.14319809 14:0.14761905 15:0.027100271 16:0.048338369 17:0.80285714 18:0.345898 19:0.37227723 20:0.13953488 21:0.54251012 22:0.48203593 23:0.58144796 24:0.28272251 25:0.41011236 26:0.5037037 27:0.70994475 28:0.3022508 29:0.50778816 30:0.58737864 31:0.0032467532 32:0.8390411 33:0.28571429 34:0.72108844 35:0.24020888 36:0.21649485 37:0.022556391 38:0.54621849 39:0.004 40:0.6027027 41:0.16176471 42:0.74147727 43:0.20697168 44:0.051886792 45:0.18157895 46:0.015452539 47:0.26217228 48:0.56743003 49:0.34966592 50:0.32032854 51:0.46435101 52:0.49575071 53:0.53150685 54:0.025641026 55:0.62634409 56:0.39085239 57:0.65162907 58:0.15570934 59:0.53954802 60:0.6087963 61:0.075362319 62:0.58423913 63:0.40782123 64:0.63309353 65:0.56928839 66:0.29949239 67:0.0023364486 68:0.33711048 69:0.0029498525 70:0.40555556 71:0.089494163 72:0.10483871 73:0.068131868 74:0.31111111 75:0.032178218 76:0.052083333 77:0.61124694 78:0.06512605 79:0.40606061 80:0.046511628 81:0.54195011 82:0.49456522 83:0.52652259 84:0.66189112 85:0.52345679 86:0.55269923 87:0.43613707 88:0.14465409 89:0.43065693 90:0.54524362 91:0.013513514 92:0.59893048 93:0.38983051 94:0.41269841 95:0.45575221 96:0.068965517 97:0.45856354 98:0.56103896 100:0.5974359 101:0.21812081 102:0.58278146 103:0.025510204 104:0.028915663 105:0.056265985 106:0.049356223 107:0.094674556 108:0.49565217 109:0.011547344 110:0.12931034 111:0.054200542 112:0.56367432 113:0.54014599 114:0.56284153 115:0.59734513 116:0.69248292 117:0.44391408 118:0.70231214 119:0.67401961 120:0.6572238 121:0.48275862 122:0.64948454 123:0.53170732 124:0.12149533 125:0.56462585 126:0.17127072 127:0.69607843 128:0.66301969 129:0.57543103 130:0.44117647 131:0.55982906 132:0.038709677 133:0.49196787 134:0.39772727 135:0.25165563 136:0.32335329 137:0.65633075 138:0.40061162 139:0.59635417 140:0.50912779 141:0.4981203 142:0.52892562 143:0.54986523 144:0.55589124 145:0.0056022409 146:0.020172911 147:0.083333333 148:0.43880597 149:0.44642857 150:0.67671233 151:0.24390244 152:0.32258065 153:0.26959248 154:0.39215686 155:0.8627451 156:0.64193548 157:0.040712468 158:0.68434343 159:0.60769231 160:0.540625 161:0.5646438 162:0.57181572 163:0.21854305 164:0.66666667 165:0.79705882 166:0.42345277 
0.5241137719573474 1:0.41007194 2:0.33333333 3:0.43373494 4:0.13602941 6:0.30989583 7:0.5546875 8:0.34606205 9:0.63129973 10:0.47410359 11:0.31786543 12:0.26628352 13:0.36515513 14:0.34761905 15:0.27371274 16:0.033232628 17:0.58571429 18:0.45454545 19:0.28514851 20:0.39341085 21:0.49797571 22:0.50598802 23:0.42986425 24:0.54450262 25:0.55337079 26:0.61481481 27:0.53867403 28:0.30546624 29:0.13707165 30:0.58737864 31:0.019480519 32:0.95547945 33:0.014577259 34:0.71201814 35:0.093994778 36:0.23367698 37:0.012531328 38:0.70588235 39:0.492 40:0.58648649 41:0.54411765 42:0.66193182 43:0.45533769 44:0.39150943 45:0.25789474 46:0.061810155 47:0.078651685 48:0.72264631 49:0.37861915 50:0.5174538 51:0.35283364 52:0.56090652 53:0.51506849 54:0.088578089 55:0.60483871 56:0.43866944 57:0.56390977 58:0.12110727 59:0.22316384 60:0.62731481 61:0.0028985507 62:0.69565217 63:0.24022346 64:0.60911271 65:0.033707865 66:0.29441624 67:0.0023364486 68:0.62889518 69:0.35103245 70:0.55 71:0.49805447 72:0.31451613 73:0.32527473 74:0.29555556 75:0.39851485 76:0.041666667 77:0.56479218 78:0.30042017 79:0.27474747 80:0.27906977 81:0.58503401 82:0.48641304 83:0.35756385 84:0.50429799 85:0.47160494 86:0.60154242 87:0.48909657 88:0.44968553 89:0.13868613 90:0.52436195 91:0.075675676 92:0.77540107 94:0.43452381 95:0.40707965 96:0.044334975 97:0.14917127 98:0.44675325 99:0.41871921 100:0.5 101:0.52013423 102:0.59933775 103:0.32653061 104:0.34698795 105:0.31713555 106:0.16094421 107:0.065088757 108:0.73913043 109:0.23556582 110:0.26436782 111:0.28726287 112:0.46764092 113:0.5377129 114:0.50546448 115:0.45575221 116:0.52164009 117:0.63961814 118:0.78612717 119:0.64705882 120:0.52691218 121:0.49867374 122:0.45360825 123:0.4 124:0.052959502 125:0.84353742 126:0.50276243 127:0.71813725 128:0.65864333 129:0.59482759 130:0.0058823529 131:0.58974359 132:0.15483871 133:0.50401606 134:0.32765152 135:0.37306843 136:0.5508982 137:0.51937985 138:0.56574924 139:0.48958333 140:0.30831643 141:0.29135338 142:0.68319559 143:0.47708895 144:0.47129909 145:0.0056022409 146:0.014409222 147:0.11363636 148:0.51940299 149:0.52083333 150:0.5369863 151:0.100271 152:0.010752688 154:0.46666667 155:0.88235294 156:0.62580645 157:0.025445293 158:0.66919192 159:0.56153846 160:0.36875 161:0.31926121 162:0.51761518 163:0.28807947 164:0.73717949 165:0.80588235 166:0.50488599 
1 1:0.33093525 2:0.15151515 3:0.032128514 4:0.89705882 6:0.125 7:0.5546875 8:0.65632458 9:0.5596817 10:0.34661355 11:0.62645012 12:0.64750958 13:0.59665871 14:0.57142857 15:0.58807588 16:0.057401813 17:0.74285714 18:0.51884701 19:0.65742574 20:0.30620155 21:0.69433198 22:0.50299401 23:0.73529412 24:0.039267016 25:0.02247191 26:0.60493827 27:0.54972376 28:0.32475884 29:0.45482866 30:0.019417476 31:0.081168831 32:0.90753425 33:0.41982507 34:0.099773243 35:0.36031332 36:0.28178694 38:0.54621849 39:0.008 40:0.41351351 41:0.040441176 42:0.71590909 43:0.48583878 44:0.64858491 45:0.57631579 46:0.44812362 47:0.15730337 48:0.55725191 49:0.65701559 50:0.34291581 51:0.6654479 52:0.5325779 53:0.55342466 54:0.49184149 55:0.17741935 56:0.50727651 57:0.56892231 58:0.12456747 59:0.48022599 60:0.21064815 61:0.84057971 62:0.7173913 63:0.29608939 64:0.019184652 65:0.40074906 66:0.31472081 68:0.25779037 69:0.0029498525 70:0.23055556 71:0.027237354 72:0.10887097 73:0.5956044 74:0.58 75:0.54455446 76:0.052083333 77:0.62836186 78:0.50630252 79:0.68888889 80:0.56511628 81:0.56689342 82:0.48913043 83:0.7524558 84:0.69340974 85:0.11604938 86:0.59383033 87:0.29283489 88:0.49371069 89:0.53284672 90:0.020881671 91:0.40540541 92:0.63101604 93:0.6440678 94:0.37896825 95:0.38053097 96:0.054187192 97:0.0082872928 98:0.5974026 99:0.0098522167 100:0.48974359 101:0.14765101 102:0.55298013 103:0.63010204 104:0.64337349 105:0.5831202 106:0.31759657 107:0.053254438 108:0.56811594 109:0.43418014 110:0.54597701 111:0.50677507 112:0.72651357 113:0.55231144 114:0.54098361 115:0.13053097 116:0.31207289 117:0.038186158 118:0.77745665 119:0.64460784 120:0.54107649 121:0.023872679 122:0.24226804 123:0.12195122 124:0.51401869 125:0.73809524 126:0.28729282 127:0.34068627 128:0.059080963 129:0.39008621 130:0.46764706 131:0.53418803 132:0.061290323 133:0.59236948 134:0.57575758 135:0.5187638 136:0.2994012 137:0.64082687 138:0.32110092 139:0.6953125 140:0.72413793 141:0.72368421 142:0.42699725 143:0.47708895 144:0.57703927 145:0.0028011204 146:0.74063401 147:0.098484848 148:0.25671642 149:0.26785714 150:0.49315068 151:0.30081301 152:0.31541219 153:0.45454545 154:0.49803922 155:0.88235294 156:0.7483871 157:0.03562341 158:0.13131313 159:0.017948718 160:0.434375 161:0.40633245 162:0.50406504 163:0.28145695 164:0.66025641 165:0.75 166:0.49511401 
0.2132925794371701 1:0.43884892 2:0.03030303 3:0.12851406 4:0.52573529 6:0.26041667 7:0.57291667 8:0.83770883 9:0.48541114 10:0.3247012 11:0.63109049 12:0.47509579 13:0.47732697 14:0.6047619 15:0.49322493 16:0.19033233 17:0.80857143 18:0.51441242 19:0.5980198 20:0.4748062 21:0.47773279 22:0.49101796 23:0.60633484 24:0.018324607 25:0.0084269663 26:0.52839506 27:0.74033149 28:0.22829582 29:0.46728972 30:0.0097087379 31:0.0032467532 32:0.14726027 33:0.29446064 34:0.088435374 35:0.31331593 36:0.12371134 37:0.01754386 38:0.56582633 39:0.008 40:0.64594595 41:0.095588235 42:0.22727273 43:0.37254902 44:0.66509434 45:0.54736842 46:0.52317881 47:0.28838951 48:0.62086514 49:0.66146993 50:0.44147844 51:0.42230347 52:0.49291785 53:0.61917808 54:0.37062937 55:0.16397849 56:0.66112266 57:0.66666667 58:0.15570934 59:0.44067797 60:0.15509259 61:0.24637681 63:0.52513966 64:0.0095923261 65:0.54307116 66:0.30964467 67:0.0023364486 68:0.38526912 69:0.0029498525 70:0.46944444 71:0.10505837 72:0.0080645161 73:0.53626374 74:0.51555556 75:0.46287129 76:0.036458333 77:0.60146699 78:0.61344538 79:0.57777778 80:0.56976744 81:0.4829932 82:0.50271739 83:0.45776031 84:0.21203438 85:0.14814815 86:0.54755784 87:0.47040498 88:0.83333333 89:0.50729927 90:0.023201856 92:0.032085561 93:0.35028249 94:0.3452381 95:0.4380531 96:0.073891626 97:0.30662983 98:0.55584416 99:0.0049261084 100:0.62051282 101:0.073825503 102:0.19205298 103:0.51020408 104:0.59036145 105:0.54731458 106:0.52145923 107:0.20414201 108:0.53333333 109:0.44572748 110:0.54310345 111:0.52303523 112:0.49060543 113:0.50364964 114:0.6284153 115:0.32743363 116:0.54669704 117:0.023866348 118:0.68208092 119:0.67401961 120:0.67422096 121:0.013262599 122:0.12886598 123:0.068292683 124:0.13395639 125:0.040816327 126:0.20441989 127:0.2377451 128:0.04595186 129:0.29310345 130:0.40882353 131:0.43589744 132:0.074193548 133:0.50803213 134:0.41856061 135:0.58719647 136:0.34730539 137:0.66408269 138:0.43730887 139:0.6796875 140:0.54563895 141:0.47556391 142:0.57300275 143:0.57142857 144:0.56193353 145:0.0056022409 146:0.014409222 147:0.11363636 148:0.50447761 149:0.49702381 150:0.71506849 151:0.28184282 152:0.4516129 153:0.36990596 154:0.011764706 155:0.31372549 156:0.0064516129 157:0.038167939 158:0.18939394 159:0.012820513 160:0.059375 161:0.26649077 162:0.28726287 163:0.18543046 164:0.57051282 165:0.74705882 166:0.3485342 
0.3433016494426727 1:0.37410072 3:0.044176707 4:0.35294118 6:0.6875 7:0.50260417 8:0.37470167 9:0.53846154 10:0.5936255 11:0.26450116 12:0.40038314 13:0.40811456 14:0.33095238 15:0.31165312 16:0.054380665 17:0.70571429 18:0.52771619 19:0.37425743 20:0.29844961 21:0.44534413 22:0.50598802 23:0.43438914 24:0.93979058 25:0.50842697 26:0.60987654 27:0.46961326 28:0.35369775 29:0.34267913 30:0.59466019 31:0.0032467532 32:0.69520548 33:0.28571429 34:0.55102041 35:0.057441253 36:0.21649485 37:0.037593985 38:0.58823529 39:0.024 40:0.38108108 41:0.025735294 42:0.72159091 43:0.5577342 44:0.34669811 45:0.30263158 46:0.035320088 47:0.11985019 48:0.50127226 49:0.38084633 50:0.54414784 51:0.44241316 52:0.52974504 53:0.47671233 54:0.32400932 55:0.51344086 56:0.47817048 57:0.5037594 58:0.10726644 59:0.59887006 60:0.65740741 61:0.0028985507 62:0.11413043 63:0.53072626 64:0.74340528 65:0.14981273 66:0.28426396 67:0.0023364486 68:0.30311615 69:0.032448378 70:0.22222222 71:0.019455253 72:0.092741935 73:0.3010989 74:0.35555556 75:0.36633663 76:0.072916667 77:0.60635697 78:0.30252101 79:0.41818182 80:0.29534884 81:0.39229025 82:0.4673913 83:0.50294695 84:0.66475645 85:0.65679012 86:0.57069409 87:0.21183801 88:0.55660377 89:0.21532847 90:0.69837587 92:0.47058824 93:0.025423729 94:0.063492063 95:0.45575221 96:0.07635468 97:0.52209945 98:0.61038961 99:0.0049261084 100:0.43076923 101:0.016778523 102:0.55960265 103:0.3494898 104:0.35662651 105:0.30690537 106:0.20171674 107:0.041420118 108:0.56521739 109:0.2147806 110:0.28735632 111:0.26287263 112:0.45511482 113:0.37712895 114:0.3989071 115:0.65265487 116:0.55580866 117:0.68973747 118:0.78034682 119:0.60539216 120:0.48725212 121:0.54907162 122:0.52835052 123:0.63902439 124:0.049844237 125:0.1292517 126:0.22099448 127:0.67401961 128:0.61050328 129:0.40732759 131:0.44871795 132:0.0032258065 133:0.4437751 134:0.38257576 135:0.40397351 136:0.32634731 137:0.65374677 138:0.32415902 139:0.5 140:0.43407708 141:0.47180451 142:0.4600551 143:0.4690027 144:0.61329305 145:0.0056022409 146:0.21613833 147:0.40909091 148:0.2119403 149:0.22916667 150:0.4 151:0.15718157 152:0.014336918 153:0.0031347962 154:0.19215686 155:0.7875817 156:0.34193548 157:0.03307888 158:0.042929293 159:0.71025641 160:0.5875 161:0.66754617 162:0.59620596 163:0.13576159 164:0.64102564 165:0.79411765 166:0.30944625 
0.8226809679957168 1:0.26618705 2:0.080808081 3:0.48594378 4:0.97794118 5:0.01971831 6:0.12239583 7:0.57291667 8:0.56085919 9:0.5596817 10:0.36454183 11:0.65661253 12:0.50766284 13:0.62052506 14:0.52142857 15:0.5203252 16:0.084592145 17:0.76285714 18:0.52549889 19:0.56633663 20:0.43023256 21:0.5465587 22:0.51497006 23:0.58597285 24:0.17801047 25:0.028089888 26:0.60493827 27:0.57734807 28:0.30546624 29:0.43613707 30:0.041262136 31:0.0032467532 32:0.29109589 33:0.65597668 34:0.16099773 35:0.41253264 36:0.1580756 38:0.59663866 39:0.864 40:0.45675676 41:0.36764706 42:0.36079545 43:0.50544662 44:0.63207547 45:0.61578947 46:0.52759382 47:0.47191011 48:0.54707379 49:0.55902004 50:0.38603696 51:0.44241316 52:0.53824363 53:0.53424658 54:0.51048951 55:0.36021505 56:0.46985447 57:0.5914787 58:0.11418685 59:0.3700565 60:0.24305556 61:0.68405797 62:0.28804348 63:0.62569832 64:0.021582734 65:0.57303371 66:0.20812183 67:0.0046728972 68:0.4674221 69:0.81415929 70:0.46666667 71:0.40466926 72:0.42741935 73:0.62197802 74:0.52 75:0.51980198 76:0.041666667 77:0.63814181 78:0.50630252 79:0.57777778 80:0.57209302 81:0.55328798 82:0.50543478 83:0.50884086 84:0.84527221 85:0.1382716 86:0.6092545 87:0.35202492 88:0.41194969 89:0.72992701 90:0.025522042 92:0.34759358 93:0.56779661 94:0.45238095 95:0.54867257 96:0.13054187 97:0.12430939 98:0.62597403 99:0.67487685 100:0.51282051 101:0.31543624 102:0.37417219 103:0.60969388 104:0.62650602 105:0.52941176 106:0.35407725 107:0.053254438 108:0.5826087 109:0.39953811 110:0.65517241 111:0.52303523 112:0.59290188 113:0.55474453 114:0.53278689 115:0.29424779 116:0.58997722 117:0.066825776 118:0.78612717 119:0.66421569 120:0.55807365 121:0.029177719 122:0.1056701 123:0.053658537 124:0.61682243 125:0.0068027211 126:0.16574586 127:0.41421569 128:0.10503282 129:0.4612069 130:0.47647059 131:0.79059829 132:0.78064516 133:0.47389558 134:0.41856061 135:0.47461369 136:0.53293413 137:0.68217054 138:0.86544343 139:0.54947917 140:0.44219067 141:0.45488722 142:0.46556474 143:0.50404313 144:0.6102719 145:0.0028011204 146:0.0086455331 147:0.10606061 148:0.51343284 149:0.45238095 150:0.5260274 151:0.45257453 152:0.38351254 153:0.45141066 154:0.50980392 155:0.39869281 156:0.50322581 157:0.025445293 158:0.25 159:0.017948718 160:0.44375 161:0.43271768 162:0.38753388 163:0.52649007 164:0.55128205 165:0.34411765 166:0.4267101 
-0.148649 1:0.36690647 2:0.0067340067 3:0.076305221 4:0.011029412 6:0.013020833 7:0.60416667 8:0.52267303 9:0.56763926 10:0.2250996 11:0.63805104 12:0.43103448 13:0.50357995 14:0.61190476 15:0.51219512 16:0.14803625 17:0.73428571 18:0.47006652 19:0.38613861 20:0.40503876 21:0.48380567 22:0.51197605 23:0.39140271 24:0.018324607 25:0.030898876 26:0.52839506 27:0.63535912 28:0.14790997 30:0.024271845 31:0.0032467532 32:0.70890411 33:0.27405248 34:0.097505669 35:0.065274151 36:0.21993127 38:0.43137255 39:0.024 40:0.56216216 41:0.047794118 42:0.72159091 43:0.36165577 44:0.6745283 45:0.47894737 46:0.5209713 47:0.20973783 48:0.58015267 49:0.4766147 50:0.30184805 51:0.46983547 52:0.48725212 53:0.48767123 54:0.42424242 55:0.01344086 56:0.46777547 57:0.63408521 58:0.096885813 59:0.0084745763 60:0.15972222 61:0.0028985507 62:0.125 63:0.51396648 64:0.026378897 65:0.011235955 66:0.2893401 67:0.0023364486 68:0.25779037 69:0.029498525 70:0.33611111 71:0.054474708 72:0.092741935 73:0.55384615 74:0.49111111 75:0.42574257 76:0.057291667 77:0.62591687 78:0.6092437 79:0.41818182 80:0.60697674 81:0.44217687 82:0.55163043 83:0.48133595 84:0.0085959885 85:0.07654321 86:0.59383033 87:0.28660436 88:0.22327044 89:0.003649635 90:0.030162413 92:0.48663102 93:0.019774011 94:0.35515873 95:0.46460177 96:0.073891626 97:0.0027624309 98:0.49090909 99:0.0098522167 100:0.59230769 101:0.036912752 102:0.56291391 103:0.53571429 104:0.60722892 105:0.56521739 106:0.49570815 107:0.28402367 108:0.71304348 109:0.40415704 110:0.46264368 111:0.55555556 112:0.43841336 113:0.36982968 114:0.40163934 115:0.18362832 116:0.44646925 117:0.035799523 118:0.68208092 119:0.65686275 120:0.55807365 121:0.037135279 122:0.012886598 123:0.017073171 124:0.040498442 125:0.1462585 126:0.1878453 127:0.25735294 128:0.054704595 129:0.31034483 130:0.0029411765 131:0.47435897 132:0.0064516129 133:0.46385542 134:0.44886364 135:0.58057395 136:0.18862275 137:0.49870801 138:0.23853211 139:0.4296875 140:0.45030426 141:0.41541353 142:0.50413223 143:0.56873315 144:0.5407855 145:0.0028011204 146:0.011527378 147:0.098484848 148:0.35223881 149:0.33630952 150:0.62191781 151:0.1598916 152:0.0071684588 153:0.0031347962 154:0.19215686 155:0.79411765 156:0.37741935 157:0.03562341 158:0.18434343 159:0.025641026 160:0.584375 161:0.66226913 162:0.59620596 163:0.14238411 164:0.65384615 165:0.8 166:0.3257329 
-0.148649 1:0.36690647 2:0.0033670034 3:0.0040160643 4:0.12867647 6:0.39583333 7:0.03125 8:0.6849642 9:0.023872679 10:0.49800797 11:0.58932715 12:0.38697318 13:0.49403341 14:0.63571429 15:0.4796748 16:0.13897281 17:0.031428571 18:0.5232816 19:0.51089109 20:0.3255814 21:0.14979757 22:0.02994012 23:0.12217195 24:0.59947644 25:0.52808989 26:0.096296296 27:0.013812155 28:0.025723473 29:0.13084112 30:0.6092233 31:0.0032467532 32:0.70547945 33:0.27696793 34:0.71428571 35:0.067885117 36:0.22680412 37:0.020050125 38:0.016806723 39:0.024 40:0.010810811 41:0.014705882 42:0.71875 43:0.52723312 44:0.66037736 45:0.53421053 46:0.46799117 47:0.014981273 48:0.1653944 49:0.65924276 50:0.50308008 51:0.27605119 52:0.025495751 53:0.038356164 54:0.24708625 55:0.56451613 56:0.36174636 57:0.01754386 59:0.26836158 60:0.6087963 61:0.0028985507 62:0.11413043 63:0.51396648 64:0.65707434 65:0.037453184 66:0.2893401 67:0.0023364486 68:0.0056657224 69:0.029498525 70:0.0083333333 71:0.011673152 72:0.088709677 73:0.48351648 74:0.53111111 75:0.49752475 76:0.052083333 77:0.026894866 78:0.62184874 79:0.44242424 80:0.4627907 81:0.070294785 82:0.029891304 83:0.26522593 84:0.48710602 85:0.45432099 86:0.025706941 87:0.0062305296 88:0.14465409 89:0.11678832 90:0.57540603 92:0.48663102 93:0.016949153 94:0.42857143 95:0.46460177 96:0.083743842 97:0.19337017 98:0.033766234 99:0.0049261084 100:0.015384615 101:0.0067114094 102:0.56622517 103:0.5 104:0.56626506 105:0.56521739 106:0.53433476 107:0.062130178 108:0.14492754 109:0.3256351 110:0.53448276 111:0.53658537 112:0.11482255 113:0.02189781 114:0.027322404 115:0.4380531 116:0.55353075 117:0.63245823 118:0.034682081 119:0.031862745 120:0.014164306 121:0.51724138 122:0.40721649 123:0.44390244 124:0.040498442 125:0.13605442 126:0.18232044 127:0.67892157 128:0.66958425 129:0.53663793 130:0.0029411765 131:0.47863248 132:0.0064516129 133:0.28514056 134:0.41856061 135:0.63796909 136:0.005988024 137:0.023255814 138:0.006116208 139:0.125 140:0.4158215 141:0.33270677 142:0.013774105 143:0.026954178 144:0.033232628 145:0.0028011204 146:0.014409222 147:0.098484848 148:0.0059701493 149:0.005952381 150:0.010958904 151:0.16260163 152:0.0071684588 153:0.0031347962 154:0.18039216 155:0.79411765 156:0.29354839 157:0.03562341 158:0.62626263 159:0.62051282 160:0.578125 161:0.66490765 162:0.59891599 163:0.14238411 164:0.65384615 165:0.80294118 166:0.3257329 
-0.148649 1:0.24460432 2:0.0033670034 3:0.036144578 4:0.93014706 6:0.81510417 7:0.52604167 8:0.38663484 9:0.5596817 10:0.1314741 11:0.20417633 12:0.40804598 13:0.26491647 14:0.32142857 15:0.30894309 16:0.036253776 17:0.71428571 18:0.52771619 19:0.38811881 20:0.10077519 21:0.43117409 22:0.52095808 23:0.4321267 24:0.020942408 25:0.028089888 26:0.62469136 27:0.47513812 28:0.31189711 29:0.77258567 30:0.0024271845 31:0.0064935065 32:0.50342466 33:0.47230321 35:0.67624021 36:0.1580756 37:0.54385965 38:0.57422969 39:0.012 40:0.37297297 41:0.018382353 42:0.14204545 43:0.19825708 44:0.31839623 45:0.30263158 46:0.015452539 47:0.11985019 48:0.50381679 49:0.39198218 50:0.12525667 51:0.44058501 52:0.54674221 53:0.49863014 54:0.076923077 55:0.38978495 56:0.48232848 57:0.52130326 58:0.10034602 59:0.86158192 60:0.083333333 61:0.73333333 62:0.054347826 63:0.59776536 64:0.13189448 65:0.89513109 66:0.076142132 67:0.0023364486 68:0.2776204 69:0.005899705 70:0.21111111 71:0.015564202 72:0.0080645161 73:0.26813187 74:0.36 75:0.27970297 76:0.046875 77:0.62347188 78:0.29411765 79:0.43030303 80:0.29767442 81:0.3968254 82:0.48097826 83:0.50491159 84:0.83381089 85:0.034567901 86:0.59125964 87:0.20249221 88:0.53144654 89:0.7080292 90:0.43387471 92:0.14438503 93:0.57627119 94:0.017857143 95:0.53097345 96:0.39408867 97:0.84530387 98:0.61558442 99:0.0098522167 100:0.44102564 101:0.013422819 102:0.17218543 103:0.33418367 104:0.33493976 105:0.28644501 106:0.19527897 107:0.029585799 108:0.55942029 109:0.21939954 110:0.28448276 111:0.25745257 112:0.44467641 113:0.38199513 114:0.41256831 115:0.050884956 116:0.095671982 117:0.050119332 118:0.78901734 119:0.62009804 120:0.48441926 121:0.026525199 122:0.49742268 123:0.5195122 124:0.49221184 125:0.33333333 126:0.32596685 127:0.093137255 129:0.07112069 130:0.61176471 131:0.64529915 132:0.79354839 133:0.43975904 134:0.3844697 135:0.41280353 136:0.30838323 137:0.64857881 138:0.3058104 139:0.51302083 140:0.44421907 141:0.47744361 142:0.43801653 143:0.4690027 144:0.61329305 145:0.0028011204 146:0.66570605 147:0.12121212 148:0.2119403 149:0.22619048 150:0.40547945 151:0.66937669 152:0.64516129 153:0.51724138 154:0.015686275 155:0.41176471 156:0.048387097 157:0.022900763 158:0.0050505051 159:0.035897436 160:0.0125 161:0.1292876 162:0.16260163 163:0.13245033 164:0.62820513 165:0.81764706 166:0.20846906 
-0.148649 1:0.11510791 2:0.0067340067 3:0.088353414 4:0.9375 6:0.69270833 7:0.61979167 8:0.43436754 9:0.56763926 10:0.061752988 11:0.31786543 12:0.42528736 13:0.15990453 14:0.36904762 15:0.24119241 16:0.060422961 17:0.71142857 18:0.38137472 19:0.37227723 20:0.19573643 21:0.46558704 22:0.53592814 23:0.42081448 25:0.028089888 26:0.50864198 27:0.63812155 28:0.096463023 29:0.6635514 30:0.033980583 31:0.0064935065 32:0.48630137 33:0.63556851 34:0.01814059 35:0.54046997 36:0.15120275 37:0.78446115 38:0.45658263 39:0.008 40:0.59459459 41:0.051470588 42:0.045454545 43:0.10021786 44:0.40330189 45:0.30789474 46:0.10154525 47:0.19850187 48:0.61323155 49:0.40311804 50:0.084188912 51:0.4606947 52:0.49008499 53:0.49315068 54:0.016317016 55:0.66129032 56:0.45945946 57:0.64411028 58:0.079584775 59:0.70338983 60:0.069444444 61:0.6173913 62:0.035326087 63:0.44692737 64:0.074340528 65:0.94007491 66:0.14213198 67:0.0023364486 68:0.2917847 69:0.0088495575 70:0.36944444 71:0.062256809 72:0.012096774 73:0.24175824 74:0.37111111 75:0.1460396 76:0.0625 77:0.61858191 78:0.35084034 79:0.43030303 80:0.31627907 81:0.45124717 82:0.57608696 83:0.50491159 84:0.86819484 85:0.027160494 86:0.59383033 87:0.27102804 88:0.13836478 89:0.81386861 90:0.14385151 91:0.0054054054 92:0.19786096 93:0.60169492 94:0.061507937 95:0.54424779 96:0.21182266 97:0.86740331 98:0.47532468 99:0.0098522167 100:0.61538462 101:0.030201342 102:0.10264901 103:0.2244898 104:0.3253012 105:0.30434783 106:0.25107296 107:0.32544379 108:0.75652174 109:0.18475751 110:0.28735632 111:0.26829268 112:0.45302714 113:0.38199513 114:0.41530055 115:0.07300885 116:0.12756264 117:0.069212411 118:0.6416185 119:0.65196078 120:0.5325779 121:0.037135279 122:0.43556701 123:0.17073171 124:0.67912773 125:0.54081633 126:0.22099448 127:0.080882353 128:0.019693654 129:0.066810345 130:0.76764706 131:0.61538462 132:0.50967742 133:0.42771084 134:0.37689394 135:0.36865342 136:0.18263473 137:0.44702842 138:0.21100917 139:0.4453125 140:0.43002028 141:0.46052632 142:0.54820937 143:0.60107817 144:0.57401813 145:0.0028011204 146:0.011527378 147:0.083333333 148:0.37014925 149:0.33928571 150:0.63835616 151:0.67479675 152:0.62007168 153:0.54545455 154:0.011764706 155:0.14705882 156:0.029032258 157:0.048346056 158:0.025252525 159:0.087179487 160:0.021875 161:0.34828496 162:0.20867209 163:0.22847682 164:0.70512821 165:0.85882353 166:0.41368078 
-0.148649 1:0.41726619 2:0.0067340067 3:0.092369478 4:0.52573529 6:0.25520833 7:0.6171875 8:0.50357995 9:0.5596817 10:0.18326693 11:0.29930394 12:0.6743295 13:0.1646778 14:0.42380952 15:0.40108401 16:0.051359517 17:0.72 18:0.43237251 19:0.64356436 20:0.43217054 21:0.72874494 22:0.52694611 23:0.71040724 24:0.010471204 25:0.025280899 26:0.52098765 27:0.64640884 28:0.10610932 29:0.46728972 30:0.02184466 31:0.0032467532 32:0.29109589 33:0.33527697 34:0.011337868 35:0.32114883 36:0.30927835 37:0.01754386 38:0.46498599 39:0.064 40:0.6 41:0.051470588 42:0.59375 43:0.1503268 44:0.39150943 45:0.53157895 46:0.086092715 47:0.21348315 48:0.6692112 49:0.6013363 50:0.34291581 51:0.6928702 52:0.48441926 53:0.55616438 54:0.34265734 55:0.16397849 56:0.45738046 57:0.64411028 58:0.083044983 59:0.44067797 60:0.083333333 61:0.24637681 62:0.0081521739 63:0.5698324 64:0.023980815 65:0.5505618 66:0.27918782 67:0.0023364486 68:0.30028329 69:0.57817109 70:0.38055556 71:0.062256809 72:0.040322581 73:0.22197802 74:0.61111111 75:0.37376238 76:0.052083333 77:0.61613692 78:0.34243697 79:0.6989899 80:0.60697674 81:0.60770975 82:0.57065217 83:0.75638507 84:0.19484241 85:0.086419753 86:0.58868895 87:0.2834891 88:0.17610063 89:0.50729927 90:0.034802784 92:0.26203209 93:0.35310734 94:0.051587302 95:0.32743363 96:0.46059113 97:0.3038674 98:0.47532468 99:0.0098522167 100:0.61794872 101:0.030201342 102:0.44701987 103:0.30357143 104:0.31566265 105:0.34015345 106:0.24034335 107:0.32544379 108:0.74202899 109:0.43879908 110:0.56034483 111:0.5799458 112:0.73068894 113:0.54744526 114:0.55191257 115:0.19911504 116:0.44419134 117:0.031026253 118:0.63872832 119:0.65441176 120:0.54390935 121:0.031830239 122:0.1314433 123:0.07804878 124:0.3894081 125:0.06122449 126:0.49171271 127:0.066176471 128:0.010940919 129:0.056034483 130:0.41764706 131:0.17521368 132:0.12258065 133:0.66666667 134:0.63636364 135:0.46799117 136:0.18862275 137:0.45994832 138:0.22324159 139:0.63020833 140:0.6673428 141:0.70676692 142:0.55371901 143:0.60107817 144:0.57099698 145:0.0028011204 146:0.011527378 147:0.098484848 148:0.38208955 149:0.35119048 150:0.64657534 151:0.27642276 152:0.45519713 153:0.37617555 154:0.050980392 155:0.56862745 156:0.025806452 157:0.038167939 158:0.015151515 159:0.023076923 160:0.528125 161:0.73350923 162:0.56910569 163:0.15231788 164:0.57051282 165:0.71176471 166:0.20521173 
-0.148649 1:0.3381295 2:0.084175084 3:0.036144578 4:0.53676471 6:0.23697917 7:0.54427083 8:0.64439141 9:0.54907162 10:0.11952191 11:0.30162413 12:0.46360153 13:0.27207637 14:0.52619048 15:0.30894309 16:0.057401813 17:0.73428571 18:0.82039911 19:0.43168317 20:0.29844961 21:0.56477733 22:0.50898204 23:0.41855204 24:0.020942408 25:0.025280899 26:0.60740741 27:0.52486188 28:0.32154341 29:0.46417445 30:0.019417476 31:0.0032467532 32:0.88356164 33:0.24198251 34:0.011337868 35:0.31592689 36:0.25085911 37:0.010025063 38:0.56582633 39:0.008 40:0.4 41:0.029411765 42:0.73011364 43:0.18954248 44:0.43396226 45:0.44736842 46:0.075055188 47:0.1423221 48:0.78625954 49:0.53674833 50:0.14579055 51:0.51005484 52:0.52407932 53:0.49315068 54:0.47785548 55:0.16935484 56:0.44906445 57:0.55137845 58:0.11072664 59:0.43220339 60:0.092592593 61:0.26376812 62:0.67934783 63:0.31843575 64:0.021582734 65:0.53932584 66:0.30456853 67:0.0023364486 68:0.27478754 69:0.0029498525 70:0.225 71:0.023346303 72:0.11693548 73:0.2967033 74:0.55555556 75:0.25495049 76:0.057291667 77:0.62102689 78:0.54621849 79:0.43232323 80:0.57906977 81:0.50340136 82:0.48641304 83:0.48722986 84:0.22636103 85:0.034567901 86:0.59383033 87:0.26479751 88:0.5 89:0.51094891 90:0.030162413 91:0.048648649 92:0.62032086 93:0.35875706 94:0.053571429 95:0.41150442 96:0.066502463 97:0.28176796 98:0.60519481 99:0.0098522167 100:0.46923077 101:0.11073825 102:0.56622517 103:0.32397959 104:0.35180723 105:0.34782609 106:0.56652361 107:0.10059172 108:0.86666667 109:0.27713626 110:0.43678161 111:0.52845528 112:0.44467641 113:0.37469586 114:0.40163934 115:0.11283186 116:0.32574032 117:0.033412888 118:0.78034682 119:0.63480392 120:0.52124646 121:0.029177719 122:0.1314433 123:0.075609756 124:0.17445483 125:0.68027211 126:0.20441989 127:0.11519608 128:0.0087527352 129:0.092672414 130:0.40588235 131:0.54700855 132:0.093548387 133:0.69678715 134:0.60416667 135:0.71302428 136:0.31137725 137:0.65116279 138:0.32110092 139:0.5 140:0.48073022 141:0.47932331 142:0.43526171 143:0.47439353 144:0.59516616 145:0.0028011204 146:0.0086455331 147:0.098484848 148:0.23880597 149:0.25297619 150:0.4630137 151:0.27642276 152:0.4516129 153:0.37617555 154:0.49411765 155:0.87908497 156:0.72258065 157:0.038167939 158:0.015151515 159:0.023076923 160:0.4875 161:0.47493404 162:0.53116531 163:0.2615894 164:0.66666667 165:0.76764706 166:0.4723127 
-0.148649 1:0.3381295 2:0.077441077 3:0.032128514 4:0.53676471 6:0.23697917 7:0.55208333 8:0.64916468 9:0.5596817 10:0.12350598 11:0.28538283 12:0.66091954 13:0.27684964 14:0.38095238 15:0.30894309 16:0.045317221 17:0.74285714 18:0.51884701 19:0.65742574 20:0.29069767 21:0.70445344 22:0.50598802 23:0.7239819 24:0.023560209 25:0.025280899 26:0.60987654 27:0.53314917 28:0.30546624 29:0.46417445 30:0.019417476 31:0.0032467532 32:0.88356164 33:0.24198251 34:0.011337868 35:0.31592689 36:0.25085911 37:0.010025063 38:0.54621849 39:0.008 40:0.4 41:0.033088235 42:0.73295455 43:0.19607843 44:0.34433962 45:0.47105263 46:0.033112583 47:0.15730337 48:0.57251908 49:0.65256125 50:0.14373717 51:0.67641682 52:0.52974504 53:0.55068493 54:0.48484848 55:0.16935484 56:0.4989605 57:0.55889724 58:0.10726644 59:0.43220339 60:0.092592593 61:0.26376812 62:0.67663043 63:0.31843575 64:0.021582734 65:0.53932584 66:0.30456853 67:0.0023364486 68:0.25779037 69:0.0029498525 70:0.22222222 71:0.023346303 72:0.11693548 73:0.2967033 74:0.56888889 75:0.25990099 76:0.052083333 77:0.62836186 78:0.30462185 79:0.6969697 80:0.5744186 81:0.57369615 82:0.48913043 83:0.75442043 84:0.22636103 85:0.034567901 86:0.59640103 87:0.26791277 88:0.49056604 89:0.51094891 90:0.030162413 91:0.048648649 92:0.61497326 93:0.35875706 94:0.049603175 95:0.41150442 96:0.068965517 97:0.28176796 98:0.5974026 99:0.0098522167 100:0.47948718 101:0.11409396 102:0.56622517 103:0.32653061 104:0.34939759 105:0.32992327 106:0.19527897 107:0.053254438 108:0.57101449 109:0.27020785 110:0.48563218 111:0.5203252 112:0.72442589 113:0.54744526 114:0.53278689 115:0.10840708 116:0.32118451 117:0.033412888 118:0.77745665 119:0.63970588 120:0.52124646 121:0.029177719 122:0.1314433 123:0.075609756 124:0.17133956 125:0.67687075 126:0.19889503 127:0.11519608 128:0.0087527352 129:0.092672414 130:0.40588235 131:0.54700855 132:0.093548387 133:0.6184739 134:0.59848485 135:0.43046358 136:0.29640719 137:0.64082687 138:0.31804281 139:0.671875 140:0.70588235 141:0.71992481 142:0.4214876 143:0.47169811 144:0.57703927 145:0.0028011204 146:0.0086455331 147:0.098484848 148:0.24477612 149:0.25595238 150:0.4739726 151:0.27642276 152:0.4516129 153:0.37617555 154:0.49411765 155:0.87908497 156:0.72258065 157:0.03562341 158:0.015151515 159:0.023076923 160:0.490625 161:0.47757256 162:0.53116531 163:0.25827815 164:0.66666667 165:0.76764706 166:0.4723127 
-0.148649 1:0.37410072 2:0.32659933 3:0.59036145 4:0.0625 6:0.5859375 7:0.020833333 8:0.15274463 9:0.045092838 10:0.5059761 11:0.74709977 12:0.51340996 13:0.76610979 14:0.6547619 15:0.47154472 16:0.12386707 17:0.034285714 18:0.58093126 19:0.42178218 20:0.36821705 21:0.36639676 22:0.023952096 23:0.1199095 24:0.66492147 25:0.5252809 26:0.012345679 27:0.11325967 28:0.01607717 29:0.27102804 30:0.63592233 31:0.0032467532 32:0.15410959 33:0.30612245 34:0.63492063 36:0.49828179 37:0.0025062657 38:0.11204482 39:0.476 40:0.14594595 41:0.52205882 42:0.35795455 43:0.63180828 44:0.59669811 45:0.63684211 46:0.72626932 47:0.026217228 48:0.28498728 49:0.33184855 50:0.51950719 51:0.44606947 52:0.025495751 53:0.019178082 54:0.095571096 55:0.40053763 56:0.031185031 57:0.01754386 58:0.076124567 59:0.49717514 60:0.56481481 61:0.014492754 62:0.18206522 63:0.53072626 64:0.68585132 65:0.06741573 66:0.37563452 67:0.0023364486 68:0.43909348 69:0.47492625 70:0.43333333 71:0.55642023 72:0.47580645 73:0.74505495 74:0.63777778 75:0.49257426 76:0.072916667 77:0.031784841 78:0.54201681 79:0.49494949 80:0.31395349 81:0.15873016 82:0.02173913 83:0.37131631 84:0.26074499 85:0.45432099 86:0.015424165 87:0.39563863 88:0.012578616 89:0.098540146 90:0.67285383 91:0.021621622 92:0.19786096 93:0.048022599 94:0.72222222 95:0.20353982 96:0.65270936 97:0.25138122 98:0.031168831 99:0.64039409 100:0.015384615 101:0.46979866 102:0.36754967 103:0.5255102 104:0.55180723 105:0.57033248 106:0.39270386 107:0.038461538 108:0.17391304 109:0.33487298 110:0.58333333 111:0.36856369 112:0.22129436 113:0.068126521 114:0.030054645 115:0.47123894 116:0.58997722 117:0.53221957 118:0.0086705202 119:0.022058824 120:0.039660057 121:0.61803714 122:0.53865979 123:0.62682927 124:0.52959502 125:0.034013605 126:0.54696133 127:0.72058824 128:0.62363239 129:0.74353448 130:0.0029411765 131:0.02991453 132:0.11612903 133:0.48192771 134:0.54734848 135:0.66887417 136:0.50299401 137:0.072351421 138:0.4587156 139:0.049479167 140:0.13184584 141:0.28571429 142:0.13498623 143:0.021563342 144:0.027190332 145:0.0028011204 146:0.011527378 147:0.068181818 148:0.50149254 149:0.48809524 150:0.15068493 151:0.070460705 152:0.0035842294 153:0.0062695925 154:0.45490196 155:0.25490196 156:0.36774194 157:0.050890585 158:0.76515152 159:0.55384615 160:0.375 161:0.70712401 162:0.53387534 163:0.18543046 164:0.61538462 165:0.7 166:0.11074919 
-0.148649 1:0.3381295 2:0.077441077 3:0.040160643 4:0.53676471 6:0.234375 7:0.52604167 8:0.37708831 9:0.56233422 10:0.37250996 11:0.60556845 12:0.67049808 13:0.60620525 14:0.57380952 15:0.61246612 16:0.051359517 17:0.72285714 18:0.5232816 19:0.64950495 20:0.29651163 21:0.71862348 22:0.51197605 23:0.71493213 24:0.0078534031 25:0.025280899 26:0.61481481 27:0.49171271 28:0.33118971 29:0.46417445 30:0.026699029 31:0.0032467532 32:0.8869863 33:0.24198251 34:0.090702948 35:0.31592689 36:0.24742268 37:0.010025063 38:0.57703081 39:0.008 40:0.38378378 41:0.025735294 42:0.73011364 43:0.50326797 44:0.63443396 45:0.6 46:0.39735099 47:0.12734082 48:0.58778626 49:0.59465479 50:0.37782341 51:0.68738574 52:0.54390935 53:0.53424658 54:0.060606061 55:0.16935484 56:0.5010395 57:0.52631579 58:0.10726644 59:0.43220339 60:0.21990741 61:0.26956522 62:0.68206522 63:0.31843575 64:0.023980815 65:0.53932584 66:0.30456853 67:0.0023364486 68:0.28611898 69:0.0029498525 70:0.21944444 71:0.019455253 72:0.11693548 73:0.59340659 74:0.61333333 75:0.57425743 76:0.057291667 77:0.62102689 78:0.46848739 79:0.6989899 80:0.29069767 81:0.59183673 82:0.47826087 83:0.75638507 84:0.22922636 85:0.12839506 86:0.58611825 87:0.24299065 88:0.51572327 89:0.51094891 90:0.030162413 91:0.051351351 92:0.61497326 93:0.36158192 94:0.36111111 95:0.41150442 96:0.061576355 97:0.27900552 98:0.61298701 99:0.0098522167 100:0.44615385 101:0.087248322 102:0.56622517 103:0.64795918 104:0.64578313 105:0.59079284 106:0.32403433 107:0.044378698 108:0.56521739 109:0.46882217 110:0.56896552 111:0.38753388 112:0.72860125 113:0.55231144 114:0.5273224 115:0.14380531 116:0.079726651 117:0.033412888 118:0.78323699 119:0.62009804 120:0.49858357 121:0.029177719 122:0.1314433 123:0.075609756 124:0.17445483 125:0.68027211 126:0.20441989 127:0.34803922 128:0.059080963 129:0.38577586 130:0.40294118 131:0.54700855 132:0.090322581 133:0.65060241 134:0.625 135:0.53200883 136:0.31437126 137:0.65374677 138:0.31498471 139:0.65104167 140:0.68154158 141:0.71240602 142:0.44352617 143:0.47169811 144:0.6102719 145:0.0028011204 146:0.0086455331 147:0.090909091 148:0.22089552 149:0.23809524 150:0.42465753 151:0.27642276 152:0.4516129 153:0.37617555 154:0.49411765 155:0.87908497 156:0.72258065 157:0.038167939 158:0.095959596 159:0.023076923 160:0.4875 161:0.47229551 162:0.53116531 163:0.25827815 164:0.66666667 165:0.76764706 166:0.4723127 
-0.148649 1:0.36690647 2:0.32323232 3:0.59036145 4:0.084558824 6:0.578125 7:0.020833333 8:0.68735084 9:0.026525199 10:0.56175299 11:0.77262181 12:0.23371648 13:0.85202864 14:0.38571429 15:0.38211382 16:0.063444109 17:0.031428571 18:0.15742794 19:0.42178218 20:0.40697674 21:0.072874494 22:0.023952096 23:0.061085973 24:0.68324607 25:0.50280899 26:0.054320988 27:0.11325967 28:0.01607717 29:0.23676012 30:0.63834951 31:0.0032467532 32:0.15068493 33:0.30612245 34:0.63265306 35:0.0026109661 36:0.49828179 37:0.010025063 38:0.11204482 39:0.476 40:0.14594595 41:0.52205882 42:0.35795455 43:0.72984749 44:0.46698113 45:0.35789474 46:0.66004415 47:0.026217228 48:0.071246819 49:0.6013363 50:0.50102669 51:0.10786106 52:0.025495751 53:0.016438356 54:0.41025641 55:0.40322581 56:0.21413721 57:0.015037594 58:0.07266436 59:0.46327684 60:0.60185185 61:0.014492754 62:0.17934783 63:0.53072626 64:0.70263789 65:0.071161049 66:0.37563452 67:0.0023364486 68:0.43909348 69:0.47787611 70:0.43333333 71:0.55252918 72:0.47580645 73:0.8043956 74:0.33333333 75:0.5990099 76:0.067708333 77:0.031784841 78:0.32773109 79:0.31111111 80:0.53255814 81:0.029478458 82:0.02173913 83:0.10412574 84:0.33237822 85:0.44938272 86:0.015424165 87:0.39252336 88:0.13207547 89:0.076642336 90:0.67053364 91:0.018918919 92:0.19786096 93:0.048022599 94:0.71428571 95:0.20353982 96:0.65517241 97:0.27900552 98:0.031168831 99:0.6453202 100:0.015384615 101:0.46979866 102:0.36423841 103:0.68112245 104:0.62409639 105:0.32736573 106:0.066523605 107:0.020710059 108:0.028985507 109:0.35103926 110:0.43678161 111:0.53658537 112:0.054279749 113:0.0072992701 114:0.013661202 115:0.4579646 116:0.54441913 117:0.57040573 118:0.014450867 119:0.019607843 120:0.039660057 121:0.5994695 122:0.48969072 123:0.60243902 124:0.52959502 125:0.034013605 126:0.54696133 127:0.76960784 128:0.64770241 129:0.76724138 130:0.0029411765 131:0.02991453 132:0.11935484 133:0.1184739 134:0.21780303 135:0.37969095 136:0.50299401 137:0.072351421 138:0.4587156 139:0.0625 140:0.23529412 141:0.15037594 142:0.13498623 143:0.018867925 144:0.027190332 145:0.0028011204 146:0.011527378 147:0.075757576 148:0.50149254 149:0.48511905 150:0.15068493 151:0.073170732 152:0.0035842294 153:0.0062695925 154:0.45490196 155:0.25163399 156:0.36451613 157:0.048346056 158:0.61111111 159:0.61538462 160:0.375 161:0.70712401 162:0.53116531 163:0.18543046 164:0.61538462 165:0.7 166:0.11400651 
-0.148649 1:0.3381295 2:0.077441077 3:0.032128514 4:0.53676471 6:0.23697917 7:0.55208333 8:0.64916468 9:0.5596817 10:0.12350598 11:0.28538283 12:0.66091954 13:0.27684964 14:0.38095238 15:0.30894309 16:0.045317221 17:0.74285714 18:0.51884701 19:0.65742574 20:0.29069767 21:0.70647773 22:0.50598802 23:0.7239819 24:0.023560209 25:0.025280899 26:0.60740741 27:0.53314917 28:0.30546624 29:0.46417445 30:0.019417476 31:0.0032467532 32:0.88356164 33:0.24198251 34:0.011337868 35:0.31592689 36:0.24742268 37:0.010025063 38:0.54621849 39:0.008 40:0.4 41:0.029411765 42:0.73295455 43:0.19607843 44:0.34433962 45:0.47105263 46:0.035320088 47:0.15730337 48:0.57251908 49:0.65256125 50:0.14373717 51:0.67824497 52:0.52974504 53:0.55068493 54:0.48251748 55:0.16935484 56:0.4968815 57:0.55889724 58:0.10726644 59:0.43220339 60:0.092592593 61:0.26666667 62:0.67663043 63:0.31843575 64:0.021582734 65:0.53932584 66:0.30456853 68:0.25495751 69:0.0029498525 70:0.22222222 71:0.023346303 72:0.11693548 73:0.2967033 74:0.56888889 75:0.25990099 76:0.057291667 77:0.62836186 78:0.30462185 79:0.6969697 80:0.5744186 81:0.57596372 82:0.48913043 83:0.75442043 84:0.22636103 85:0.034567901 86:0.59640103 87:0.26791277 88:0.49056604 89:0.51094891 90:0.030162413 91:0.045945946 92:0.61497326 93:0.35875706 94:0.049603175 95:0.41150442 96:0.068965517 97:0.28176796 98:0.5974026 99:0.0098522167 100:0.47948718 101:0.11073825 102:0.56622517 103:0.32653061 104:0.34939759 105:0.32992327 106:0.19527897 107:0.053254438 108:0.57101449 109:0.27020785 110:0.48563218 111:0.5203252 112:0.72651357 113:0.54744526 114:0.53278689 115:0.10840708 116:0.32118451 117:0.033412888 118:0.77745665 119:0.63970588 120:0.52124646 121:0.029177719 122:0.1314433 123:0.075609756 124:0.17133956 125:0.67687075 126:0.19889503 127:0.11519608 128:0.0087527352 129:0.092672414 130:0.40294118 131:0.54700855 132:0.090322581 133:0.62048193 134:0.60037879 135:0.43046358 136:0.29640719 137:0.64082687 138:0.31804281 139:0.671875 140:0.70588235 141:0.71992481 142:0.41873278 143:0.47169811 144:0.57703927 145:0.0028011204 146:0.011527378 147:0.098484848 148:0.24477612 149:0.25595238 150:0.4739726 151:0.27642276 152:0.4516129 153:0.37617555 154:0.49411765 155:0.87908497 156:0.72258065 157:0.03562341 158:0.015151515 159:0.023076923 160:0.490625 161:0.47757256 162:0.53116531 163:0.25827815 164:0.66666667 165:0.76764706 166:0.4723127 
-0.148649 1:0.37410072 2:0.32659933 3:0.59036145 4:0.0625 6:0.5859375 7:0.020833333 8:0.150358 9:0.045092838 10:0.5059761 11:0.74709977 12:0.51340996 13:0.76372315 14:0.6547619 15:0.47154472 16:0.12688822 17:0.034285714 18:0.58314856 19:0.42178218 20:0.36627907 21:0.36639676 22:0.023952096 23:0.1199095 24:0.66230366 25:0.5252809 26:0.012345679 27:0.11325967 28:0.01607717 29:0.27102804 30:0.63592233 31:0.0032467532 32:0.15410959 33:0.30612245 34:0.63492063 36:0.49828179 37:0.0050125313 38:0.11204482 39:0.476 40:0.14594595 41:0.52205882 42:0.35795455 43:0.63180828 44:0.59669811 45:0.63684211 46:0.72626932 47:0.026217228 48:0.28498728 49:0.32962138 50:0.51950719 51:0.44606947 52:0.025495751 53:0.019178082 54:0.093240093 55:0.40053763 56:0.029106029 57:0.01754386 58:0.076124567 59:0.5 60:0.56481481 61:0.014492754 62:0.18206522 63:0.53072626 64:0.68585132 65:0.071161049 66:0.37563452 67:0.0023364486 68:0.43909348 69:0.47492625 70:0.43333333 71:0.55642023 72:0.47580645 73:0.74505495 74:0.63777778 75:0.49257426 76:0.072916667 77:0.031784841 78:0.54201681 79:0.49494949 80:0.31395349 81:0.15873016 82:0.02173913 83:0.37131631 84:0.26074499 85:0.45432099 86:0.015424165 87:0.39563863 88:0.012578616 89:0.098540146 90:0.67517401 91:0.021621622 92:0.20320856 93:0.048022599 94:0.72222222 95:0.19911504 96:0.65270936 97:0.25414365 98:0.031168831 99:0.64039409 100:0.015384615 101:0.46979866 102:0.36754967 103:0.52295918 104:0.55180723 105:0.57033248 106:0.39270386 107:0.038461538 108:0.17391304 109:0.33487298 110:0.58045977 111:0.36856369 112:0.21920668 113:0.068126521 114:0.030054645 115:0.47123894 116:0.58997722 117:0.53221957 118:0.0086705202 119:0.019607843 120:0.039660057 121:0.61803714 122:0.53865979 123:0.62682927 124:0.52959502 125:0.037414966 126:0.54696133 127:0.72058824 128:0.62363239 129:0.74353448 130:0.0029411765 131:0.02991453 132:0.11612903 133:0.48192771 134:0.54734848 135:0.66887417 136:0.50299401 137:0.072351421 138:0.45565749 139:0.049479167 140:0.12981744 141:0.28571429 142:0.13498623 143:0.018867925 144:0.027190332 145:0.0028011204 146:0.011527378 147:0.068181818 148:0.50447761 149:0.48809524 150:0.15068493 151:0.070460705 152:0.0035842294 153:0.0062695925 154:0.45490196 155:0.25490196 156:0.36774194 157:0.050890585 158:0.76767677 159:0.55641026 160:0.375 161:0.70712401 162:0.53387534 163:0.18543046 164:0.61538462 165:0.7 166:0.11074919 
-0.148649 1:0.34532374 3:0.032128514 4:0.53308824 5:0.050704225 6:0.24739583 7:0.33072917 8:0.53221957 9:1 10:0.38844622 11:0.63805104 12:0.4789272 13:0.6300716 14:0.52857143 15:0.56910569 16:0.057401813 17:0.97428571 18:0.50110865 19:0.6 20:0.3624031 21:0.46356275 22:0.75149701 23:0.58371041 24:0.04973822 25:0.011235955 26:0.51358025 27:0.33149171 28:0.025723473 29:0.46417445 30:0.024271845 31:0.0032467532 32:0.87671233 33:0.24198251 34:0.12471655 35:0.31070496 36:0.24054983 37:0.012531328 38:0.42016807 39:0.14 40:0.38378378 41:0.014705882 42:0.73863636 43:0.52287582 44:0.63207547 45:0.51842105 46:0.47019868 47:0.98876404 48:0.81170483 49:0.63919822 50:0.37371663 51:0.43510055 52:0.92067989 53:0.62739726 54:0.55944056 55:0.17204301 56:0.46985447 57:0.32581454 59:0.43502825 60:0.24074074 61:0.26086957 62:0.66032609 63:0.34078212 64:0.011990408 65:0.53558052 66:0.30964467 67:0.0023364486 68:0.24929178 69:0.20058997 70:0.24444444 71:0.015564202 72:0.11693548 73:0.61978022 74:0.49111111 75:0.56435644 76:0.067708333 77:0.98288509 78:0.47689076 79:0.56363636 80:0.58604651 81:0.67800454 82:0.44021739 83:0.4459725 84:0.23782235 85:0.13333333 86:0.3933162 87:0.087227414 88:0.42138365 89:0.51094891 90:0.016241299 91:0.035135135 92:0.60962567 93:0.35310734 94:0.42261905 95:0.42477876 96:0.068965517 97:0.28729282 98:0.83896104 99:0.0098522167 100:0.33589744 101:0.0067114094 102:0.57284768 103:0.64030612 104:0.64337349 105:0.54987212 106:0.35193133 107:0.25443787 108:0.77971014 109:0.43187067 110:0.54597701 111:0.48509485 112:0.46137787 113:0.6593674 114:0.66666667 115:0.17699115 116:0.47835991 117:0.031026253 118:0.4017341 119:0.28676471 120:0.082152975 121:0.013262599 122:0.12886598 123:0.065853659 124:0.1588785 125:0.65306122 126:0.1878453 127:0.40931373 128:0.078774617 129:0.44396552 130:0.4 131:0.55128205 132:0.083870968 133:0.51606426 134:0.49242424 135:0.52759382 136:0.3502994 137:0.68475452 138:0.74923547 139:0.6953125 140:0.5030426 141:0.46992481 142:0.36639118 143:0.38814016 144:0.70090634 145:0.0056022409 146:0.014409222 147:0.090909091 148:0.22985075 149:0.16369048 150:0.39178082 151:0.27371274 152:0.44802867 153:0.37304075 154:0.49019608 155:0.87908497 156:0.70967742 157:0.03562341 158:0.16161616 159:0.012820513 160:0.50625 161:0.50131926 162:0.54200542 163:0.25165563 164:0.66025641 165:0.77352941 166:0.46254072 
-0.02768773747698856 1:0.37410072 2:0.31986532 3:0.58634538 4:0.50735294 6:0.28125 7:0.0078125 8:0.66587112 9:0.034482759 10:0.57768924 11:0.52436195 12:0.42528736 13:0.51551313 14:0.62380952 15:0.57181572 16:0.17220544 17:0.025714286 18:0.61419069 19:0.52871287 20:0.4127907 21:0.25708502 22:0.011976048 23:0.18325792 24:0.87172775 25:0.51404494 26:0.12345679 27:0.11049724 28:0.0096463023 29:0.21495327 30:0.33980583 31:0.0032467532 32:0.15068493 33:0.3090379 34:0.43764172 35:0.0026109661 36:0.49484536 38:0.1092437 39:0.468 40:0.14594595 41:0.51470588 42:0.36079545 43:0.52505447 44:0.62028302 45:0.51842105 46:0.43267108 47:0.026217228 48:0.26717557 49:0.66146993 50:0.50102669 51:0.35100548 52:0.014164306 53:0.046575342 54:0.44755245 55:0.93010753 56:0.43035343 57:0.0050125313 58:0.076124567 59:0.25706215 60:0.68518519 61:0.11594203 62:0.17391304 63:0.53631285 64:0.29496403 65:0.0037453184 66:0.37563452 67:0.0023364486 68:0.44192635 69:0.48082596 70:0.43611111 71:0.54863813 72:0.46370968 73:0.45054945 74:0.54444444 75:0.63613861 76:0.072916667 77:0.031784841 78:0.62394958 79:0.47070707 80:0.44186047 81:0.11111111 82:0.0081521739 83:0.35363458 84:1 85:0.65925926 86:0.017994859 87:0.39252336 88:0.16037736 89:0.43430657 90:0.38979118 91:0.018918919 92:0.20320856 93:0.06779661 94:0.48412698 95:0.21681416 96:0.65024631 97:0.046961326 98:0.020779221 99:0.63546798 100:0.0051282051 101:0.46308725 102:0.37086093 103:0.60969388 104:0.52771084 105:0.52685422 106:0.57939914 107:0.10946746 108:0.29565217 109:0.5704388 110:0.51149425 111:0.51219512 112:0.18371608 113:0.03892944 114:0.038251366 115:0.57743363 116:0.56492027 117:0.75894988 118:0.034682081 119:0.0098039216 120:0.033994334 121:0.35013263 122:0.65206186 123:0.38780488 124:0.52647975 125:0.034013605 126:0.54696133 127:0.67401961 128:0.36761488 129:0.56465517 131:0.02991453 132:0.10967742 133:0.41967871 134:0.47348485 135:0.66445916 136:0.50598802 137:0.069767442 138:0.4617737 139:0.18229167 140:0.47870183 141:0.40037594 142:0.13498623 143:0.0080862534 144:0.012084592 145:0.014005602 146:0.27665706 147:0.32575758 148:0.50149254 149:0.48511905 150:0.15068493 151:0.073170732 152:0.0035842294 153:0.0031347962 154:0.44705882 155:0.25490196 156:0.35806452 157:0.040712468 158:0.16161616 159:0.033333333 160:0.371875 161:0.70976253 162:0.53658537 163:0.18211921 164:0.60897436 165:0.70294118 166:0.11726384 
-0.148649 1:0.41726619 3:0.020080321 4:0.52941176 5:0.061971831 6:0.25520833 7:0.31770833 8:0.55608592 9:0.93899204 10:0.40836653 11:0.64965197 12:0.54214559 13:0.64916468 14:0.50952381 15:0.5501355 16:0.22356495 17:0.91714286 18:0.5654102 19:0.58613861 20:0.35852713 21:0.44534413 22:0.76347305 23:0.61085973 24:0.031413613 25:0.011235955 26:0.44197531 27:0.36740331 28:0.022508039 29:0.46728972 30:0.036407767 31:0.0032467532 32:0.30479452 33:0.33819242 34:0.14965986 35:0.31331593 36:0.31271478 37:0.015037594 38:0.52661064 39:0.112 40:0.35405405 41:0.014705882 42:0.59943182 43:0.54466231 44:0.62264151 45:0.56578947 46:0.49006623 47:0.62921348 48:0.63358779 49:0.54342984 50:0.38193018 51:0.4369287 52:0.898017 53:0.59452055 54:0.52680653 55:0.16666667 56:0.50519751 57:0.34837093 58:0.0034602076 59:0.43785311 60:0.2662037 61:0.24927536 62:0.0081521739 63:0.5698324 64:0.016786571 65:0.54307116 66:0.27918782 67:0.025700935 68:0.22379603 69:0.56342183 70:0.21388889 71:0.015564202 72:0.036290323 73:0.63516484 74:0.52 75:0.56930693 76:0.32291667 77:0.98533007 78:0.47268908 79:0.6040404 80:0.58837209 81:0.52834467 82:0.44836957 83:0.48722986 84:0.22063037 85:0.14567901 86:0.32904884 87:0.1152648 88:0.14779874 89:0.50729927 90:0.025522042 92:0.27272727 93:0.35028249 94:0.45238095 95:0.32743363 96:0.45812808 97:0.30110497 98:0.92987013 100:0.34615385 101:0.0067114094 102:0.45364238 103:0.64285714 104:0.64096386 105:0.52685422 106:0.42918455 107:0.90236686 108:0.80289855 109:0.42263279 110:0.56896552 111:0.50677507 112:0.51983299 113:0.61313869 114:0.6557377 115:0.17256637 116:0.44419134 117:0.023866348 118:0.34104046 119:0.32107843 120:0.17280453 121:0.015915119 122:0.1314433 123:0.070731707 124:0.39875389 125:0.068027211 126:0.49723757 127:0.44852941 128:0.10065646 129:0.47844828 130:0.40588235 131:0.16239316 132:0.10322581 133:0.48594378 134:0.47727273 135:0.53863135 136:0.32335329 137:0.82687338 138:0.49541284 139:0.64583333 140:0.46044625 141:0.47556391 142:0.35812672 143:0.45013477 144:0.86102719 145:0.0056022409 146:0.014409222 147:0.068181818 148:0.2238806 149:0.1875 150:0.3890411 151:0.27371274 152:0.44802867 153:0.36990596 154:0.050980392 155:0.5751634 156:0.029032258 157:0.081424936 158:0.1969697 159:0.020512821 160:0.525 161:0.73350923 162:0.57452575 163:0.15562914 164:0.57051282 165:0.71470588 166:0.2019544 
-0.148649 1:0.3381295 2:0.25589226 3:0.10843373 4:0.53308824 6:0.25 7:1 8:0.5202864 9:0.44562334 10:0.30876494 11:0.66589327 12:0.57471264 13:0.57995227 14:0.56904762 15:0.50406504 16:0.14199396 17:0.32285714 18:0.49002217 19:0.54059406 20:0.43410853 21:0.49797571 22:0.87125748 23:0.56334842 24:0.02617801 25:0.011235955 26:0.75555556 27:0.71270718 28:0.85530547 29:0.46417445 30:0.024271845 31:0.0064935065 32:0.8869863 33:0.2361516 34:0.138322 35:0.31331593 36:0.25085911 37:0.012531328 38:0.42016807 39:0.008 40:0.71351351 41:0.24264706 42:0.73295455 43:0.45098039 44:0.65801887 45:0.6 46:0.55408389 47:0.014981273 48:0.58524173 49:0.53006682 50:0.35934292 51:0.47166362 52:0.59206799 53:0.81643836 54:0.44988345 55:0.16935484 56:0.4989605 57:0.94736842 58:0.39100346 59:0.43785311 60:0.19907407 61:0.25797101 62:0.67663043 63:0.31843575 64:0.014388489 65:0.53932584 66:0.30964467 67:0.0023364486 68:0.23229462 69:0.0029498525 70:0.38611111 71:0.12840467 72:0.10887097 73:0.6043956 74:0.59555556 75:0.47524752 76:0.041666667 77:0.30806846 78:0.56722689 79:0.6020202 80:0.6 81:0.58049887 82:0.95108696 83:0.49312377 84:0.23209169 85:0.1037037 86:0.96143959 87:0.49221184 88:0.97484277 89:0.50729927 90:0.027842227 91:0.11351351 92:0.62566845 93:0.35310734 94:0.43253968 95:0.4159292 96:0.071428571 97:0.29281768 98:0.40779221 100:0.92564103 101:0.30201342 102:0.56953642 103:0.57908163 104:0.62409639 105:0.5370844 106:0.4248927 107:0.035502959 108:0.64057971 109:0.41108545 110:0.56896552 111:0.51490515 112:0.55323591 113:0.61313869 114:0.69125683 115:0.23451327 116:0.523918 117:0.021479714 118:0.95953757 119:0.94852941 120:0.6713881 121:0.018567639 122:0.12886598 123:0.070731707 124:0.1682243 125:0.68027211 126:0.20994475 127:0.34068627 128:0.085339168 129:0.41594828 130:0.40294118 131:0.55128205 132:0.096774194 133:0.45582329 134:0.47727273 135:0.50993377 136:0.18263473 137:0.3875969 138:0.1529052 139:0.58333333 140:0.45841785 141:0.43233083 142:0.59779614 143:0.9245283 144:0.85498489 145:0.089635854 146:0.028818444 147:0.45454545 148:0.50149254 149:0.5327381 150:0.75616438 151:0.27371274 152:0.44802867 153:0.37304075 154:0.47843137 155:0.87908497 156:0.71612903 157:0.040712468 158:0.24747475 159:0.017948718 160:0.484375 161:0.47757256 162:0.53387534 163:0.2615894 164:0.66666667 165:0.77058824 166:0.47557003 
-0.148649 1:0.34532374 2:0.47474747 3:0.7751004 4:0.53676471 6:0.23958333 7:0.6640625 8:0.60143198 9:0.44827586 10:0.43027888 11:0.64965197 12:0.57279693 13:0.66587112 14:0.56190476 15:0.52574526 16:0.081570997 17:0.38571429 18:0.55210643 19:0.44950495 20:0.34496124 21:0.51012146 22:0.50898204 23:0.57239819 24:0.0078534031 25:0.0056179775 26:0.51851852 27:0.91712707 28:1 29:0.46417445 30:0.053398058 31:0.0064935065 32:0.89726027 33:0.2361516 34:0.1814059 35:0.30809399 36:0.25085911 37:0.010025063 38:0.85714286 39:0.012 40:0.98918919 41:0.54411765 42:0.72727273 43:0.56427015 44:0.5990566 45:0.6 46:0.49668874 47:0.014981273 48:0.49872774 49:0.50111359 50:0.39835729 51:0.49177331 52:0.4815864 53:0.56986301 54:0.46386946 55:0.16935484 56:0.4989605 57:0.70676692 58:0.67474048 59:0.43220339 60:0.29861111 61:0.26956522 62:0.69293478 63:0.31843575 64:0.021582734 65:0.53183521 66:0.30456853 67:0.0023364486 68:0.93201133 69:0.0029498525 70:0.975 71:0.63035019 72:0.41129032 73:0.64395604 74:0.64666667 75:0.57178218 76:0.052083333 77:0.33740831 78:0.46428571 79:0.55555556 80:0.58604651 81:0.57596372 82:0.55706522 83:0.47740668 84:0.24928367 85:0.1654321 86:0.64267352 87:0.74454829 88:0.63836478 89:0.51094891 90:0.034802784 91:0.33513514 92:0.63101604 93:0.3559322 94:0.47619048 95:0.41150442 96:0.051724138 97:0.27624309 98:0.35324675 99:0.4137931 100:0.73589744 101:0.45973154 102:0.56622517 103:0.64285714 104:0.6313253 105:0.52429668 106:0.39270386 107:0.035502959 108:0.45507246 109:0.41801386 110:0.54597701 111:0.53929539 112:0.55741127 113:0.61557178 114:0.61202186 115:0.1659292 116:0.35990888 117:0.0095465394 118:0.84682081 119:0.67647059 120:0.898017 121:0.018567639 122:0.12886598 123:0.070731707 124:0.18380062 125:0.70748299 126:0.2320442 127:0.49019608 128:0.12691466 129:0.50862069 130:0.39411765 131:0.55128205 132:0.087096774 133:0.46987952 134:0.56060606 135:0.53642384 136:0.75748503 137:0.45219638 138:0.12232416 139:0.53645833 140:0.49087221 141:0.42105263 142:0.96418733 143:0.67115903 144:0.55589124 145:0.14565826 146:0.028818444 147:0.33333333 148:1 149:0.88095238 150:1 151:0.27100271 152:0.44444444 153:0.37304075 154:0.56470588 155:0.88235294 156:0.72903226 157:0.061068702 158:0.23232323 159:0.028205128 160:0.4625 161:0.45118734 162:0.52574526 163:0.2615894 164:0.66666667 165:0.76764706 166:0.47557003 
-0.0996009011916973 1:0.17985612 2:0.31313131 3:0.58232932 4:0.56985294 6:0.63802083 7:0.2578125 8:0.68973747 9:0.27055703 10:0.38247012 11:0.62645012 12:0.42911877 13:0.61336516 14:0.57380952 15:0.62059621 16:0.054380665 17:0.28571429 18:0.52549889 19:0.43564356 20:0.30232558 21:0.45748988 22:0.23353293 23:0.37782805 24:0.052356021 25:0.39044944 26:0.34320988 27:0.25690608 28:0.012861736 29:0.53894081 30:0.35436893 31:0.0032467532 32:0.1609589 33:0.55102041 34:0.2244898 35:0.51697128 36:0.1443299 37:0.79197995 38:0.27170868 39:0.496 40:0.21891892 41:0.51470588 42:0.33238636 43:0.50544662 44:0.65566038 45:0.5 46:0.41942605 47:0.02247191 48:0.43256997 49:0.5701559 50:0.36960986 51:0.45886654 52:0.24645892 53:0.26027397 54:0.45221445 55:0.33602151 56:0.32432432 57:0.21804511 58:0.044982699 59:0.66949153 60:0.40972222 61:0.34492754 62:0.18206522 63:0.51955307 64:0.30695444 65:0.97003745 66:0.20304569 67:0.0046728972 68:0.42209632 69:0.29498525 70:0.41111111 71:0.54863813 72:0.48790323 73:0.60659341 74:0.46666667 75:0.57673267 76:0.072916667 77:0.32273839 78:0.49369748 79:0.43636364 80:0.53953488 81:0.31519274 82:0.2173913 83:0.50098232 84:0.24068768 85:0.39012346 86:0.31619537 87:0.35825545 88:0.18867925 89:0.4379562 90:0.34570766 91:0.016216216 92:0.2513369 93:0.36440678 94:0.36904762 95:0.72566372 96:0.0024630542 97:0.84530387 98:0.30649351 99:0.65024631 100:0.16153846 101:0.46308725 102:0.35761589 103:0.65816327 104:0.6626506 105:0.60358056 106:0.35407725 107:0.050295858 108:0.49565217 109:0.46882217 110:0.49425287 111:0.51219512 112:0.44676409 113:0.25547445 114:0.24863388 115:0.35619469 116:0.35535308 117:0.35322196 118:0.36416185 119:0.30637255 120:0.15864023 121:0.37665782 122:0.33247423 123:0.34634146 124:0.7694704 125:0.027210884 126:0.27071823 127:0.44852941 128:0.33041575 129:0.40086207 130:0.82058824 131:0.85042735 132:0.47096774 133:0.43975904 134:0.40340909 135:0.49006623 136:0.49401198 137:0.31524548 138:0.4617737 139:0.3359375 140:0.37525355 141:0.45676692 142:0.21487603 143:0.17789757 144:0.25981873 145:0.0028011204 146:0.0057636888 147:0.090909091 148:0.48059701 149:0.46130952 150:0.25479452 151:0.45257453 152:0.65949821 153:0.31974922 154:0.46666667 155:0.33006536 156:0.37096774 157:0.030534351 158:0.093434343 159:0.066666667 160:0.34375 161:0.29815303 162:0.40379404 163:0.56953642 164:0.6025641 165:0.31176471 166:0.46905537 
-0.148649 1:0.25899281 2:0.30976431 3:0.58232932 4:0.90808824 6:0.31510417 7:0.25520833 8:0.6778043 9:0.27055703 10:0.38047809 11:0.63805104 12:0.43103448 13:0.61575179 14:0.58095238 15:0.62330623 16:0.069486405 17:0.28571429 18:0.52771619 19:0.43366337 20:0.3003876 21:0.46153846 22:0.23353293 23:0.37556561 24:0.039267016 25:0.38764045 26:0.34320988 27:0.25138122 28:0.0096463023 29:0.37383178 30:0.37378641 31:0.019480519 32:0.24315068 33:0.63556851 34:0.26530612 35:0.37336815 36:0.1443299 37:0.0025062657 38:0.27170868 39:0.496 40:0.21621622 41:0.51470588 42:0.33806818 43:0.50544662 44:0.66509434 45:0.5 46:0.43487859 47:0.026217228 48:0.43765903 49:0.56570156 50:0.36344969 51:0.4606947 52:0.24645892 53:0.26027397 54:0.44522145 55:0.37365591 56:0.32224532 57:0.21553885 58:0.041522491 59:0.41242938 60:0.42361111 61:0.8173913 62:0.17934783 63:0.75418994 64:0.30695444 65:0.56928839 66:0.16243655 67:0.0046728972 68:0.42209632 69:0.2979351 70:0.41111111 71:0.54863813 72:0.48790323 73:0.61318681 74:0.46888889 75:0.57673267 76:0.083333333 77:0.32273839 78:0.50630252 79:0.43636364 80:0.53953488 81:0.31746032 82:0.2173913 83:0.49901768 84:0.75644699 85:0.39753086 86:0.31362468 87:0.35514019 88:0.17924528 89:0.54014599 90:0.35034803 91:0.013513514 92:0.30481283 93:0.61016949 94:0.375 95:0.66371681 96:0.036945813 97:0.082872928 98:0.30909091 99:0.65024631 100:0.15897436 101:0.45973154 102:0.37086093 103:0.66071429 104:0.66746988 105:0.60869565 106:0.36266094 107:0.056213018 108:0.51014493 109:0.46420323 110:0.49425287 111:0.51490515 112:0.44885177 113:0.25547445 114:0.24863388 115:0.35176991 116:0.34624146 117:0.33651551 118:0.36127168 119:0.30147059 120:0.15580737 121:0.3872679 122:0.31701031 123:0.33170732 124:0.48909657 126:0.055248619 127:0.46078431 128:0.35886214 129:0.40948276 130:0.46176471 131:0.70512821 132:0.84193548 133:0.44176707 134:0.40719697 135:0.49448124 136:0.49401198 137:0.31782946 138:0.4648318 139:0.33333333 140:0.36713996 141:0.45488722 142:0.21487603 143:0.17789757 144:0.26283988 145:0.0028011204 146:0.78386167 147:0.075757576 148:0.47761194 149:0.46130952 150:0.25205479 151:0.4796748 152:0.390681 153:0.4200627 154:0.46666667 155:0.36601307 156:0.37096774 157:0.048346056 158:0.11363636 159:0.074358974 160:0.34375 161:0.26912929 162:0.39837398 163:0.56291391 164:0.58974359 165:0.30882353 166:0.43648208 
-0.148649 1:0.25179856 2:0.28282828 3:0.57831325 4:0.94485294 6:0.32552083 7:0.30989583 8:0.52505967 9:0.30769231 10:0.28486056 11:0.60324826 12:0.42911877 13:0.42720764 14:0.62619048 15:0.50135501 16:0.16314199 17:0.27142857 18:0.50332594 19:0.42376238 20:0.43217054 21:0.4291498 22:0.23652695 23:0.39366516 24:0.015706806 25:0.38764045 26:0.30123457 27:0.30110497 28:0.025723473 29:0.37071651 30:0.37135922 31:0.0064935065 32:0.25342466 33:0.64431487 34:0.25623583 35:0.37075718 36:0.1443299 37:0.0025062657 38:0.20448179 39:0.504 40:0.2972973 41:0.5 42:0.33806818 43:0.33333333 44:0.66273585 45:0.50526316 46:0.49006623 47:0.014981273 48:0.36132316 49:0.46547884 50:0.33470226 51:0.44058501 52:0.23796034 53:0.25205479 54:0.36130536 55:0.39247312 56:0.45322245 57:0.32581454 58:0.031141869 59:0.40677966 60:0.4212963 61:0.78550725 62:0.16304348 63:0.74860335 64:0.30455635 65:0.57677903 66:0.16243655 67:0.0046728972 68:0.42209632 69:0.31563422 70:0.40555556 71:0.53696498 72:0.47983871 73:0.4989011 74:0.51111111 75:0.40346535 76:0.057291667 77:0.33740831 78:0.62184874 79:0.43636364 80:0.62325581 81:0.3106576 82:0.26086957 83:0.49901768 84:0.78796562 85:0.39506173 86:0.28791774 87:0.3271028 88:0.17924528 89:0.62408759 90:0.35034803 91:0.0081081081 92:0.30481283 93:0.61016949 94:0.30952381 95:0.61504425 96:0.02955665 97:0.11878453 98:0.20519481 99:0.65024631 100:0.29487179 101:0.44295302 102:0.37417219 103:0.47959184 104:0.57349398 105:0.55754476 106:0.53648069 107:0.056213018 108:0.3942029 109:0.43648961 110:0.49137931 111:0.59078591 112:0.44050104 113:0.25304136 114:0.25136612 115:0.36283186 116:0.45330296 117:0.33890215 118:0.27745665 119:0.33823529 120:0.13314448 121:0.3872679 122:0.32216495 123:0.33170732 124:0.48286604 126:0.08839779 127:0.39705882 128:0.35667396 129:0.33189655 130:0.46764706 131:0.73504273 132:0.83870968 133:0.37148594 134:0.43560606 135:0.62472406 136:0.5 137:0.21963824 138:0.48318043 139:0.33333333 140:0.43610548 141:0.47180451 142:0.26446281 143:0.27493261 144:0.2265861 145:0.0028011204 146:0.0028818444 147:0.11363636 148:0.46865672 149:0.44345238 150:0.32328767 151:0.45799458 152:0.390681 153:0.45141066 154:0.45490196 155:0.36601307 156:0.35806452 157:0.03307888 158:0.18181818 159:0.066666667 160:0.34375 161:0.27176781 162:0.39837398 163:0.56622517 164:0.58974359 165:0.30588235 166:0.43322476 
-0.148649 1:0.17266187 2:0.01010101 3:0.080321285 4:0.97794118 6:0.71354167 7:0.59895833 8:0.51312649 9:0.5596817 10:0.24103586 11:0.64037123 12:0.68199234 13:0.51312649 14:0.60714286 15:0.50135501 16:0.16918429 17:0.73142857 18:0.54101996 19:0.62376238 20:0.41085271 21:0.73684211 22:0.50598802 23:0.67873303 24:0.023560209 25:0.039325843 26:0.52592593 27:0.63535912 28:0.1511254 29:0.64485981 30:0.029126214 31:0.0032467532 32:0.034246575 33:0.62390671 34:0.13605442 35:0.48563969 36:0.1443299 37:0.75438596 38:0.43137255 39:0.012 40:0.56486486 41:0.051470588 42:0.14488636 43:0.37472767 44:0.66509434 45:0.58157895 46:0.52759382 47:0.21722846 48:0.68193384 49:0.5701559 50:0.31622177 51:0.70018282 52:0.47875354 53:0.5369863 54:0.42890443 55:0.34408602 56:0.44698545 57:0.62907268 58:0.10034602 59:0.75141243 60:0.16898148 61:0.68695652 62:0.0027173913 63:0.61452514 64:0.098321343 65:0.98127341 66:0.16243655 67:0.0046728972 68:0.26345609 69:0.005899705 70:0.34166667 71:0.058365759 72:0.012096774 73:0.55824176 74:0.64666667 75:0.42821782 76:0.0625 77:0.61858191 78:0.5987395 79:0.69292929 80:0.60232558 81:0.62131519 82:0.54619565 83:0.74656189 84:0.83667622 85:0.083950617 86:0.58868895 87:0.28971963 88:0.22012579 89:0.73357664 90:0.13689095 91:0.0027027027 92:0.25668449 93:0.57062147 94:0.37103175 95:0.58849558 96:0.017241379 97:0.86740331 98:0.48311688 99:0.014778325 100:0.58974359 101:0.033557047 102:0.36092715 103:0.53571429 104:0.60481928 105:0.54987212 106:0.48712446 107:0.30473373 108:0.70724638 109:0.40184758 110:0.54310345 111:0.53929539 112:0.72025052 113:0.54014599 114:0.5273224 115:0.19690265 116:0.46469248 117:0.042959427 118:0.67630058 119:0.65441176 120:0.55807365 121:0.042440318 122:0.16752577 123:0.18292683 124:0.7258567 125:0.0068027211 126:0.22099448 127:0.26960784 128:0.072210066 129:0.33189655 130:0.77352941 131:0.84615385 132:0.6483871 133:0.70080321 134:0.66477273 135:0.62030905 136:0.19161677 137:0.49612403 138:0.24159021 139:0.59375 140:0.61663286 141:0.68421053 142:0.50688705 143:0.56603774 144:0.5347432 145:0.0028011204 146:0.0057636888 147:0.098484848 148:0.35820896 149:0.3422619 150:0.62191781 151:0.42276423 152:0.67741935 153:0.47962382 154:0.011764706 155:0.30392157 156:0.0064516129 157:0.03562341 158:0.23232323 159:0.14615385 160:0.0375 161:0.1530343 162:0.39837398 163:0.57284768 164:0.61538462 165:0.3 166:0.45602606 
-0.148649 1:0.17266187 2:0.0067340067 3:0.036144578 4:0.97426471 6:0.71875 7:0.53645833 8:0.6300716 9:0.54907162 10:0.37450199 11:0.6287703 12:0.50957854 13:0.61575179 14:0.6 15:0.56910569 16:0.066465257 17:0.73428571 18:0.82926829 19:0.41980198 20:0.31976744 21:0.62348178 22:0.49401198 23:0.41176471 24:0.096858639 25:0.039325843 26:0.59506173 27:0.53314917 28:0.34405145 29:0.65732087 30:0.038834951 31:0.0032467532 32:0.054794521 33:0.62682216 34:0.17006803 35:0.48563969 36:0.13745704 37:0.7443609 38:0.54341737 39:0.012 40:0.4 41:0.033088235 42:0.14772727 43:0.50980392 44:0.63207547 45:0.49473684 46:0.46136865 47:0.16104869 48:0.82442748 49:0.5233853 50:0.3613963 51:0.5630713 52:0.50991501 53:0.48219178 54:0.5011655 55:0.32258065 56:0.44282744 57:0.55137845 58:0.11418685 59:0.76271186 60:0.23842593 61:0.69855072 62:0.0027173913 63:0.62569832 64:0.14628297 65:0.98501873 66:0.15736041 67:0.0046728972 68:0.26345609 69:0.005899705 70:0.22777778 71:0.031128405 72:0.012096774 73:0.60879121 74:0.59111111 75:0.55445545 76:0.067708333 77:0.61613692 78:0.56302521 79:0.44444444 80:0.56744186 81:0.56235828 82:0.47554348 83:0.49705305 84:0.83667622 85:0.13333333 86:0.58354756 87:0.24299065 88:0.50314465 89:0.7189781 90:0.13225058 92:0.27272727 93:0.56779661 94:0.40873016 95:0.5840708 96:0.0098522167 97:0.86740331 98:0.58701299 99:0.014778325 100:0.46923077 101:0.026845638 102:0.36423841 103:0.63265306 104:0.63614458 105:0.55498721 106:0.49570815 107:0.071005917 108:0.85217391 109:0.42725173 110:0.45114943 111:0.49593496 112:0.47599165 113:0.40145985 114:0.40983607 115:0.1460177 116:0.34851936 117:0.045346062 118:0.7716763 119:0.63235294 120:0.52974504 121:0.039787798 122:0.17010309 123:0.18780488 124:0.72274143 125:0.010204082 126:0.2320442 127:0.3872549 128:0.11159737 129:0.42672414 130:0.77058824 131:0.83760684 132:0.66129032 133:0.73493976 134:0.64015152 135:0.72406181 136:0.30239521 137:0.63565891 138:0.32415902 139:0.484375 140:0.48681542 141:0.46052632 142:0.4214876 143:0.46361186 144:0.57099698 145:0.0028011204 146:0.0057636888 147:0.090909091 148:0.24776119 149:0.26190476 150:0.4739726 151:0.42276423 152:0.68817204 153:0.47335423 154:0.015686275 155:0.32679739 156:0.0096774194 157:0.038167939 158:0.15909091 159:0.056410256 160:0.034375 161:0.11609499 162:0.39837398 163:0.57284768 164:0.61538462 165:0.3 166:0.44625407 
-0.148649 1:0.17985612 2:0.0067340067 3:0.032128514 4:0.97058824 6:0.72395833 7:0.5390625 8:0.63245823 9:0.55437666 10:0.36454183 11:0.63341067 12:0.65708812 13:0.61097852 14:0.55952381 15:0.57452575 16:0.063444109 17:0.73428571 18:0.51884701 19:0.66534653 20:0.31782946 21:0.68623482 22:0.49700599 23:0.71040724 24:0.094240838 25:0.039325843 26:0.6 27:0.52762431 28:0.33440514 29:0.6635514 30:0.038834951 31:0.0032467532 32:0.054794521 33:0.62973761 34:0.16553288 35:0.48302872 36:0.14089347 37:0.73934837 38:0.53221289 39:0.012 40:0.39189189 41:0.033088235 42:0.14772727 43:0.50326797 44:0.63915094 45:0.57894737 46:0.46578366 47:0.16104869 48:0.55725191 49:0.65924276 50:0.35318275 51:0.66727605 52:0.52124646 53:0.53424658 54:0.4988345 55:0.30645161 56:0.50519751 57:0.54887218 58:0.11418685 59:0.76836158 60:0.23148148 61:0.70724638 62:0.0027173913 63:0.6424581 64:0.14148681 65:0.98501873 66:0.15736041 67:0.0046728972 68:0.24929178 69:0.005899705 70:0.21944444 71:0.031128405 72:0.016129032 73:0.60879121 74:0.59111111 75:0.54950495 76:0.067708333 77:0.62102689 78:0.49579832 79:0.6989899 80:0.56744186 81:0.55102041 82:0.47826087 83:0.74656189 84:0.83381089 85:0.12839506 86:0.58611825 87:0.23676012 88:0.50314465 89:0.71532847 90:0.13689095 91:0.0027027027 92:0.27272727 93:0.57062147 94:0.4047619 95:0.57964602 96:0.012315271 97:0.86740331 98:0.58701299 99:0.014778325 100:0.46666667 101:0.023489933 102:0.36092715 103:0.63265306 104:0.64096386 105:0.56265985 106:0.32832618 107:0.062130178 108:0.56811594 109:0.42725173 110:0.54885057 111:0.50135501 112:0.70772443 113:0.52798054 114:0.5136612 115:0.14159292 116:0.34396355 117:0.045346062 118:0.7716763 119:0.62990196 120:0.52407932 121:0.039787798 122:0.17268041 123:0.19268293 124:0.71028037 125:0.010204082 126:0.21546961 127:0.375 128:0.10722101 129:0.42025862 130:0.76470588 131:0.83333333 132:0.70322581 133:0.59638554 134:0.58901515 135:0.51434879 136:0.29041916 137:0.62790698 138:0.31192661 139:0.66145833 140:0.70993915 141:0.71616541 142:0.4077135 143:0.46091644 144:0.56495468 145:0.0028011204 146:0.0057636888 147:0.098484848 148:0.24477612 149:0.25892857 150:0.46849315 151:0.42276423 152:0.68817204 153:0.47335423 154:0.015686275 155:0.32679739 156:0.0096774194 157:0.03562341 158:0.15656566 159:0.051282051 160:0.0375 161:0.11873351 162:0.39837398 163:0.57284768 164:0.61538462 165:0.3 166:0.44625407 
-0.148649 1:0.17266187 2:0.01010101 3:0.088353414 4:0.97794118 6:0.71354167 7:0.59635417 8:0.72792363 9:0.55172414 10:0.24701195 11:0.64269142 12:0.42145594 13:0.51551313 14:0.58809524 15:0.49864499 16:0.17824773 17:0.73714286 18:0.46119734 19:0.54059406 20:0.41472868 21:0.47368421 22:0.50299401 23:0.49547511 24:0.023560209 25:0.036516854 26:0.60987654 27:0.64364641 28:0.1511254 29:0.64485981 30:0.029126214 31:0.0032467532 32:0.030821918 33:0.62390671 34:0.14285714 35:0.48563969 36:0.14776632 37:0.75438596 38:0.44257703 39:0.012 40:0.57567568 41:0.055147059 42:0.14488636 43:0.37908497 44:0.66273585 45:0.47105263 46:0.53200883 47:0.2247191 48:0.57251908 49:0.71714922 50:0.32443532 51:0.45703839 52:0.47308782 53:0.49863014 54:0.42424242 55:0.34408602 56:0.74012474 57:0.63157895 58:0.10034602 59:0.75141243 60:0.16898148 61:0.68695652 62:0.0027173913 63:0.61452514 64:0.10551559 65:0.97752809 66:0.16243655 67:0.0046728972 68:0.2776204 69:0.005899705 70:0.35833333 71:0.062256809 72:0.012096774 73:0.56043956 74:0.47333333 75:0.43069307 76:0.057291667 77:0.61858191 78:0.59663866 79:0.45454545 80:0.59767442 81:0.42857143 82:0.54347826 83:0.49508841 84:0.83667622 85:0.086419753 86:0.57840617 87:0.30218069 88:0.30188679 89:0.73357664 90:0.13689095 91:0.0027027027 92:0.25668449 93:0.57062147 94:0.375 95:0.58849558 96:0.017241379 97:0.87016575 98:0.48311688 99:0.014778325 100:0.59230769 101:0.036912752 102:0.35761589 103:0.53571429 104:0.60240964 105:0.54731458 106:0.48712446 107:0.31065089 108:0.70434783 109:0.40415704 110:0.44827586 111:0.53116531 112:0.43006263 113:0.38442822 114:0.41530055 115:0.20353982 116:0.4715262 117:0.042959427 118:0.66473988 119:0.6495098 120:0.56090652 121:0.042440318 122:0.16752577 123:0.18292683 124:0.72274143 125:0.0068027211 126:0.21546961 127:0.2745098 128:0.074398249 129:0.3362069 130:0.77352941 131:0.84188034 132:0.65806452 133:0.48594378 134:0.45075758 135:0.55629139 136:0.19760479 137:0.49870801 138:0.24770642 139:0.625 140:0.72008114 141:0.56203008 142:0.51790634 143:0.57142857 144:0.53776435 145:0.0028011204 146:0.0057636888 147:0.098484848 148:0.37313433 149:0.35119048 150:0.63013699 151:0.42276423 152:0.67383513 153:0.47962382 154:0.011764706 155:0.29738562 156:0.0064516129 157:0.03562341 158:0.23989899 159:0.15641026 160:0.0375 161:0.15567282 162:0.39837398 163:0.57284768 164:0.61538462 165:0.30294118 166:0.45602606 
-0.148649 2:0.42424242 3:0.76706827 4:0.15073529 5:0.0028169014 6:0.70052083 7:0.052083333 8:0.68257757 9:0.021220159 10:0.53984064 11:0.52900232 12:0.42337165 13:0.51551313 14:0.63571429 15:0.53658537 16:0.12084592 17:0.097142857 18:0.58758315 19:0.51683168 20:0.46511628 21:0.24291498 22:0.011976048 23:0.20135747 24:0.71727749 25:0.49157303 26:0.17777778 27:0.33701657 28:0.022508039 29:0.38317757 30:0.58737864 31:0.0064935065 32:0.46917808 33:0.023323615 34:0.52834467 35:0.052219321 36:0.39175258 37:0.032581454 38:0.69747899 39:0.98 40:0.62972973 41:0.51838235 42:0.31818182 43:0.50762527 44:0.62971698 45:0.53684211 46:0.40838852 47:0.04494382 48:0.2264631 49:0.65924276 50:0.51334702 51:0.34734918 52:0.0084985836 53:0.057534247 54:0.24242424 55:0.53763441 56:0.46985447 57:0.12781955 59:0.62429379 60:0.60648148 61:0.0028985507 62:0.32336957 63:0.1396648 64:0.73621103 65:0.16104869 66:0.12690355 67:0.0023364486 68:0.81586402 69:0.71976401 70:0.75277778 71:0.57976654 72:0.45967742 73:0.47252747 74:0.56 75:0.54455446 76:0.052083333 77:0.048899756 78:0.61344538 79:0.45858586 80:0.43488372 81:0.099773243 82:0.02173913 83:0.35166994 84:0.56160458 85:0.65185185 86:0.064267352 87:0.18691589 88:0.22327044 89:0.13868613 90:0.70069606 91:0.0054054054 92:0.20320856 93:0.014124294 94:0.44444444 95:0.2699115 96:0.66256158 97:0.53038674 98:0.11168831 99:0.80788177 100:0.22051282 101:0.54362416 102:0.19205298 103:0.48214286 104:0.51325301 105:0.54219949 106:0.54291845 107:0.073964497 108:0.25217391 109:0.56812933 110:0.50287356 111:0.51490515 112:0.18580376 113:0.03649635 114:0.043715847 115:0.63716814 116:0.523918 117:0.61575179 118:0.075144509 119:0.078431373 120:0.039660057 121:0.54907162 122:0.55412371 123:0.65365854 124:0.052959502 125:0.55102041 126:0.20441989 127:0.63235294 128:0.59299781 129:0.57327586 130:0.0029411765 131:0.38461538 132:0.012903226 133:0.39959839 134:0.47159091 135:0.66004415 136:0.85928144 137:0.56847545 138:0.73700306 139:0.21354167 140:0.4969574 141:0.40413534 142:0.68044077 143:0.1967655 144:0.16918429 145:0.0056022409 146:0.014409222 147:0.10606061 148:0.72835821 149:0.5625 150:0.55616438 151:0.073170732 152:0.017921147 153:0.0031347962 154:0.47058824 155:0.29084967 156:0.4516129 157:0.030534351 158:0.21717172 159:0.69230769 160:0.575 161:0.74670185 162:0.40379404 163:0.97019868 164:0.30769231 165:0.30588235 166:1 
-0.148649 1:0.36690647 2:0.62289562 3:0.73092369 4:0.28308824 6:0.58333333 7:0.015625 8:0.68973747 9:0.095490716 10:0.47808765 11:0.54524362 12:0.68582375 13:0.60859189 14:0.98095238 15:0.68834688 16:0.1570997 17:0.31428571 18:0.85365854 19:0.51089109 20:0.44573643 21:0.37044534 22:0.005988024 23:0.14027149 24:0.4895288 25:0.64606742 26:0.096296296 27:0.77348066 28:0.19614148 29:0.27102804 30:0.98786408 31:0.0032467532 32:0.15410959 33:0.24781341 34:0.97959184 35:0.01305483 36:0.53264605 37:0.020050125 38:0.39215686 39:0.6 40:0.58378378 41:0.77205882 42:0.35511364 43:0.52069717 44:0.84669811 45:0.90526316 46:0.38631347 47:0.64044944 48:0.47073791 49:0.6325167 50:0.50102669 51:0.56124314 52:0.025495751 53:0.016438356 54:0.31934732 55:0.69892473 56:0.37006237 57:0.22305764 58:0.76124567 59:0.43785311 60:0.91203704 61:0.014492754 62:0.22282609 63:0.49162011 64:0.92565947 65:0.12734082 66:0.40101523 67:0.0023364486 68:0.65155807 69:0.60766962 70:0.71944444 71:0.75875486 72:0.44354839 73:0.55824176 74:0.92222222 75:0.58663366 76:0.088541667 77:0.1393643 78:0.80672269 79:0.58787879 80:0.4627907 81:0.28571429 82:0.0027173913 83:0.32612967 84:0.68194842 85:0.72592593 86:0.010282776 87:0.95015576 88:0.28616352 89:0.27737226 90:0.87006961 91:0.089189189 92:0.21925134 93:0.042372881 94:0.43452381 95:0.092920354 96:0.69458128 97:0.50828729 98:0.044155844 99:0.69950739 100:0.14871795 101:0.73489933 102:0.29801324 103:0.56122449 104:0.62891566 105:0.84654731 106:0.55150215 107:0.12130178 108:0.39710145 109:0.57505774 110:0.73850575 111:0.52845528 112:0.24425887 113:0.099756691 114:0.024590164 115:0.67256637 116:0.57175399 117:0.62052506 118:0.23121387 119:0.15931373 120:0.74220963 121:0.89920424 122:0.56443299 123:0.67073171 124:0.53271028 125:0.17346939 126:0.58563536 127:0.93627451 128:1 129:0.62068966 131:0.1025641 132:0.19677419 133:0.63654618 134:0.78409091 135:0.99779249 136:0.7994012 137:0.45994832 138:0.97247706 139:0.10677083 140:0.39350913 141:0.31015038 142:0.44352617 143:0.059299191 144:0.024169184 145:0.0056022409 146:0.014409222 147:0.053030303 148:0.87164179 149:0.93154762 150:0.70684932 151:0.043360434 152:0.0035842294 153:0.0062695925 154:0.4745098 155:0.21895425 156:0.37741935 157:0.045801527 158:0.65151515 159:0.63589744 160:0.375 161:0.6701847 162:0.49051491 163:0.22847682 164:0.6025641 165:0.65882353 166:0.084690554 
-0.148649 1:0.32374101 2:0.2962963 3:0.096385542 4:0.88602941 6:0.7734375 7:0.97135417 8:0.58949881 9:0.54376658 10:0.3247012 11:0.64269142 12:0.56704981 13:0.58711217 14:0.55714286 15:0.58265583 16:0.075528701 17:0.75428571 18:0.48558758 19:0.56237624 20:0.58527132 21:0.51214575 22:0.76946108 23:0.54977376 24:0.070680628 25:0.075842697 26:0.88641975 27:0.67679558 28:0.20257235 29:0.80685358 30:0.1092233 31:0.39935065 32:0.93150685 33:0.39941691 34:0.19501134 35:0.36031332 36:0.31958763 37:0.007518797 38:0.66106443 39:0.012 40:0.55135135 41:0.15808824 42:0.69034091 43:0.47058824 44:0.64386792 45:0.59210526 46:0.50772627 47:0.17977528 48:0.58015267 49:0.58797327 50:0.34702259 51:0.46800731 52:0.56657224 53:0.84657534 54:0.52447552 55:0.59408602 56:0.51559252 57:0.90225564 58:0.12110727 59:0.8559322 60:0.21064815 61:0.83188406 62:0.74728261 63:0.23463687 64:0.26378897 65:0.7340824 66:0.31979695 67:0.0023364486 68:0.44475921 69:0.0029498525 70:0.38333333 71:0.077821012 72:0.084677419 73:0.5978022 74:0.56888889 75:0.52227723 76:0.03125 77:0.55256724 78:0.5315126 79:0.60606061 80:0.94651163 81:0.60090703 82:0.89673913 83:0.49508841 84:0.6991404 85:0.10617284 86:0.99228792 87:0.49844237 88:0.54402516 89:0.74087591 90:0.50348028 91:0.55945946 92:0.65240642 93:0.6299435 94:0.41269841 95:0.34070796 96:0.056650246 97:0.69337017 98:0.5974026 99:0.034482759 100:0.83076923 101:0.31208054 102:0.54304636 103:0.59693878 104:0.62650602 105:0.54731458 106:0.37553648 107:0.041420118 108:0.6173913 109:0.5704388 110:0.6637931 111:0.91056911 112:0.55532359 113:0.61313869 114:0.68852459 115:0.25442478 116:0.523918 117:0.081145585 118:0.95953757 119:0.96568627 120:0.6203966 121:0.042440318 122:0.64690722 123:0.61219512 124:0.52024922 125:0.79591837 126:0.33701657 127:0.35784314 128:0.18161926 129:0.41163793 130:0.44117647 131:0.51282051 132:0.067741935 133:0.45381526 134:0.44886364 135:0.48565121 136:0.49700599 137:0.72093023 138:0.52293578 139:0.65885417 140:0.46653144 141:0.43609023 142:0.58126722 143:0.79784367 144:0.72205438 145:0.0028011204 146:0.76657061 147:0.11363636 148:0.39104478 149:0.46428571 150:0.62191781 151:0.2899729 152:0.50537634 153:0.43887147 154:0.43529412 155:0.87908497 156:0.7516129 157:0.025445293 158:0.1969697 159:0.0025641026 160:0.33125 161:0.30870712 162:0.47696477 163:0.31788079 164:0.66666667 165:0.73235294 166:0.53420195 
-0.03762641954411971 1:0.30935252 2:0.27272727 3:0.32128514 4:0.90073529 6:0.7421875 7:0.9921875 8:0.74940334 9:0.54111406 10:0.35059761 11:0.67981439 12:0.54789272 13:0.62529833 14:0.51666667 15:0.49593496 16:0.16012085 17:0.8 18:0.58093126 19:0.57623762 20:0.36046512 21:0.45748988 22:0.82335329 23:0.61764706 24:0.34031414 25:0.011235955 26:0.58271605 27:0.83149171 28:0.24115756 29:0.66666667 30:0.048543689 31:0.025974026 32:0.93493151 33:0.29446064 34:0.2675737 35:0.36814621 36:0.31958763 37:0.75689223 38:0.63585434 39:0.008 40:0.9 41:0.26102941 42:0.68465909 43:0.50326797 44:0.63443396 45:0.57105263 46:0.57395143 47:0.26966292 48:0.53689567 49:0.5545657 50:0.33470226 51:0.44058501 52:0.56657224 53:0.71506849 54:0.73892774 55:0.66129032 56:0.50727651 57:0.99749373 58:0.20069204 59:0.75988701 60:0.24305556 61:0.28985507 62:0.73641304 63:0.12849162 64:0.2470024 65:0.95131086 66:0.30456853 67:0.0023364486 68:0.54674221 69:0.0029498525 70:0.59722222 71:0.28015564 72:0.14112903 73:0.63516484 74:0.53555556 75:0.49752475 76:0.057291667 77:0.63080685 78:0.52521008 79:0.6020202 80:0.60697674 81:0.46031746 82:0.93206522 83:0.49115914 84:0.89111748 85:0.12345679 86:0.88946015 87:0.39875389 88:0.53459119 89:0.75547445 90:0.16937355 91:0.54324324 92:0.67914438 93:0.37288136 94:0.48412698 95:0.31858407 96:0.088669951 97:0.88121547 98:0.61298701 99:0.064039409 100:0.9974359 101:0.24161074 102:0.55629139 103:0.59693878 104:0.62409639 105:0.50383632 106:0.37553648 107:0.24852071 108:0.63768116 109:0.43418014 110:0.58333333 111:0.60704607 112:0.53653445 113:0.56447689 114:0.66393443 115:0.24778761 116:0.49430524 117:0.18854415 118:0.56358381 119:0.94852941 120:0.6203966 121:0.021220159 122:0.42268041 123:0.21219512 124:0.22741433 125:0.80952381 126:0.35359116 127:0.42647059 128:0.16411379 129:0.48275862 130:0.73529412 131:0.52136752 132:0.53870968 133:0.4939759 134:0.48295455 135:0.54525386 136:0.37125748 137:0.59173127 138:0.32110092 139:0.640625 140:0.46044625 141:0.47180451 142:0.83471074 143:0.99730458 144:0.93957704 145:0.0028011204 146:0.020172911 147:0.3030303 148:0.60298507 149:0.47321429 150:0.92876712 151:0.29810298 152:0.63082437 153:0.33855799 154:0.4 155:0.87908497 156:0.73225806 157:0.06870229 158:0.36363636 159:0.33589744 160:0.28125 161:0.30343008 162:0.48238482 163:0.33774834 164:0.69871795 165:0.73823529 166:0.55700326 
